#include "arm_nnfunctions.h"
#include "fully_connected.h"
#include <stdint.h>

#define LAYER_1_IN_DIM 22
#define LAYER_1_OU_DIM 40
#define LAYER_2_IN_DIM 40
#define LAYER_2_OU_DIM 40
#define LAYER_3_IN_DIM 40
#define LAYER_3_OU_DIM 40
#define LAYER_1_IN_SHIFT 13
#define LAYER_1_OU_SHIFT 15
#define LAYER_2_IN_SHIFT 8
#define LAYER_2_OU_SHIFT 12
#define LAYER_3_IN_SHIFT 10
#define LAYER_3_OU_SHIFT 13

q15_t aq15_out_Buf[40];
q15_t aq15_layer_1_weights[] = {-86, 33, 25, -73, -53, -30, 80, 53, -46, -48, -80, 63, 67, -15, 73, 80, 10, -45, -12, -4, -88, -7, 21, 63, 59, -36, 68, -72, 34, 35, 69, 26, -56, 60, 38, -73, -21, -56, -319, 262, 340, 387, 15, -358, -404, -542, -154, 133, 63, -21, -73, 56, -4, 57, 14, 39, -41, 79, 68, 241, 271, -90, -391, -194, -353, -376, -281, -385, -147, -40, -275, -566, -486, -745, -510, -11, -107, 45, 365, 538, 307, -197, -19, 13, -53, -70, -4, 300, -16, -76, -100, 80, -305, -828, -368, -479, -885, -448, -286, 281, 388, 280, -147, -319, 5, -263, -40, 463, 175, 43, -246, 0, -60, 4, 234, 80, -350, -532, -236, -591, -420, -224, -494, -119, -324, -12, 67, -163, -29, 223, 185, 15, 235, 4, 379, 458, -348, -156, -303, 34, 45, -22, 417, -272, -426, -708, -254, -279, -157, -180, -261, -296, -32, 4, 54, 110, 224, 408, 347, 342, 26, 160, 215, -24, -236, -852, -596, -30, 52, 15, 171, -187, -306, -307, -259, -160, -317, -708, -369, -27, -176, 48, -55, -128, 99, 418, 313, 52, 146, 325, 143, -235, -661, -1469, -621, -222, 60, -383, 258, -188, -573, -466, -393, -355, -619, -294, -120, 128, 65, 65, -11, -76, -66, 262, 528, 166, -64, 230, 214, 107, -126, -286, -705, -119, 197, -351, 803, 154, -676, -450, -248, -91, -100, -153, -137, 68, 270, -50, 186, 196, 354, 163, 327, 563, 176, 172, 93, 215, -137, -788, -1211, -337, 18, -175, 826, -120, -301, 95, -79, 2, -28, -119, -52, -192, -168, 153, 52, -49, -334, -319, 177, 777, 521, 186, 57, 486, 35, -367, -768, -206, -57, -11, 315, -11, -452, -63, -244, 86, -69, -56, -117, 123, -115, -247, -81, -45, -398, -279, 25, 427, 727, 327, 465, 424, -117, -599, -685, -182, 27, 508, 583, -218, -479, -160, 89, 326, 83, 178, -10, -52, -175, -140, -143, -548, -778, -1012, -470, 358, 629, 289, 325, 344, 131, -190, -557, -187, -87, 253, 434, -184, -248, 316, 603, 173, 93, -22, 86, 172, 320, 292, -126, -851, -1331, -992, -504, 394, 306, 130, 359, 430, 193, -242, -553, -41, -32, 518, 475, 14, 74, 294, 663, 347, 193, 7, 196, 375, 173, -108, -391, -1053, -1247, -811, -289, -100, 86, 201, 280, 369, 73, -11, -529, -28, 8, 166, 225, 23, 41, 604, 329, 540, 223, 39, 5, 148, -5, -41, -365, -725, -916, -350, 33, 188, 342, 341, 239, -31, 72, -198, -107, 0, 78, 58, -774, -174, -173, 435, 123, 176, -24, 136, 37, -249, -211, -489, -705, -471, -432, -325, 180, 517, 353, 296, 331, -147, 171, -386, -682, 97, -13, -65, -816, -280, 105, 278, 93, 212, 41, -193, -247, -284, -806, -905, -784, -394, -415, -18, 388, 249, 165, 178, 164, -129, -257, -216, -318, 260, -70, -46, -495, -225, 78, 167, 200, 56, 0, 169, -75, -699, -771, -436, -305, -414, -98, 89, 22, 275, 52, 139, 326, -26, 66, -216, 298, 162, 45, -69, -380, -1017, -99, 60, 46, 24, 395, 425, 32, -433, -698, -403, -195, -132, 123, 220, 165, 161, 180, 201, 380, 290, 93, -275, 251, 340, -59, 639, 439, -374, 128, 158, 173, 347, 381, 337, 20, -346, -143, -313, -204, -3, 213, 299, 161, 64, 97, 181, 413, 299, 44, -621, 506, 404, 73, 605, 663, 272, 258, 218, 236, 341, 540, 386, 230, 16, -197, -174, -367, -12, 39, 206, 83, -157, -231, 58, 224, 93, -242, -196, 371, 54, 50, 61, 166, 708, 372, 175, 235, 171, 363, 292, 299, 10, -241, -289, -179, 8, 127, -45, -169, -387, -313, -112, 48, -189, -125, -388, 604, 109, -38, 30, 245, 325, -69, 346, 430, 328, 535, 433, 243, 19, -8, -14, 24, -2, -192, 56, -26, -188, -373, -129, 444, -150, -424, -219, 372, 123, 58, 60, 15, -299, -531, 245, 656, 519, 514, 389, 238, 130, -51, -109, -255, -262, -245, 15, -522, -790, -686, -357, 439, -653, -469, -269, -594, -43, -60, -49, 257, 154, 496, 499, 171, 210, 508, 727, 357, 241, 338, -222, -202, -73, -350, -360, -435, -920, -1118, -627, -70, -412, -208, -71, -85, -85, -42, 37, 248, -189, -127, -225, -604, -378, -401, -414, -171, -106, -544, 7, 379, 154, -261, -933, -720, -365, -432, -347, -146, -68, -251, -14, -40, -39, -37, 25, 45, -13, 775, -108, 9, 556, 287, 24, 281, -86, 186, 283, 385, 234, -261, -573, -146, -37, -368, -8, 29, 82, 245, 23, -41, -16, 23, -7, 6, -19, 114, 378, 547, 161, 297, 470, 157, 34, 61, 190, 338, 119, 144, 151, 60, 371, 319, -109, -145, -128, 2, 49, 70, 15, -66, -28, -57, 78, -32, 7, 57, -50, 74, 38, -66, 86, -210, -326, -20, 42, 11, 52, -40, -81, -4, -42, 40, 80, 13, -77, -50, -48, 56, 6, -62, -64, 12, -128, -367, -261, -210, -163, -149, 167, 164, 154, -102, -63, -178, 27, -223, -243, -436, -593, -694, -256, -63, -75, 19, 40, -71, -87, -72, -110, -302, -369, -688, -985, -405, -577, -1132, -650, -565, -491, -569, -702, -214, 90, 50, -167, -206, -307, -409, -564, -368, -188, -39, 18, 30, 54, 68, -221, 39, 149, -897, -892, -964, -1137, -1154, -1304, -1441, -1296, -1276, -1339, -1046, -619, -452, -1023, -946, -663, -279, -39, 3, -123, 44, 63, 20, 10, -15, 308, -24, -177, -146, -461, -782, -1257, -1138, -1171, -1138, -1385, -1360, -1148, -1264, -1096, -607, -652, -476, 49, -265, -54, -70, 246, 126, -194, 41, -77, -287, -8, 330, 309, -22, -45, 361, -79, -282, -322, -177, -505, -933, -711, -617, -647, -723, -882, -1040, -812, -581, -235, 70, 148, -378, 35, 79, -171, 105, 653, 499, 496, 45, 264, 241, 344, 53, 193, 180, 36, -90, -12, 95, 180, -89, -113, -181, 137, 210, -415, -426, -226, 140, -45, -41, 356, 560, 1187, 580, 271, 420, 259, 166, 303, 129, 98, 356, 369, -40, -34, 42, 176, 44, 28, 0, 22, 11, 8, 98, 324, 240, -325, -38, 709, 284, 438, 517, 254, 163, 285, 518, 397, 525, 264, 172, 30, 181, 32, -7, -14, 16, -103, -287, -76, -35, 170, 98, 56, -60, -642, 557, 717, -136, 230, 169, 517, 293, 209, 87, 188, 209, 124, 380, 288, 146, -115, -61, 173, 50, -31, -10, 244, 138, -162, -45, -151, 263, 491, 552, 104, 205, 336, -8, 613, 280, 294, 227, 371, 61, 190, 199, 252, 142, 39, 4, 107, -43, 186, 167, 132, 53, -516, -128, 352, -184, 668, 822, 438, 482, 766, 182, 240, 131, 437, 353, 202, 140, 320, 89, 45, 65, 195, 76, 219, 214, 227, 383, 72, 10, -363, -541, -538, -716, 605, 282, 345, 222, 328, 253, 163, -15, 134, 164, -87, -44, 95, -212, -396, -70, 272, 356, 590, 606, 323, 128, 171, 70, -441, -1119, -343, -241, 686, -177, 470, 523, 253, 548, 240, -119, -29, -100, -189, 71, 90, -169, -237, 245, 330, 522, 361, 475, 253, 293, 378, -118, -296, -198, 76, 213, 77, -176, 178, 748, -28, -301, -264, -180, -236, -53, -50, 81, 106, 65, -29, 191, 324, 265, 410, 568, 586, 420, 164, 328, 287, -136, 150, 493, 205, 6, 32, -448, 188, -458, -405, -276, -544, -431, -275, 75, 9, -316, 29, 138, 564, 69, 688, 660, 549, 420, 350, 405, -241, -655, -655, -264, 36, 433, 557, -317, 69, 236, -168, -183, -161, -133, -358, -172, -249, -66, 72, 295, 498, 408, 529, 391, 318, 485, 480, 167, -215, -435, -896, 48, 418, 45, -50, 334, -430, 214, -358, -416, -201, -194, -325, -150, -71, 54, 249, 346, 429, 203, 281, 245, 269, 250, 246, 96, -365, -384, 250, 501, 576, 460, -107, 507, -394, -105, -249, -490, 146, 75, -368, -142, -28, -121, 83, 273, 91, -16, 235, 145, 34, -46, 29, -16, -772, -632, 466, 1022, -234, 84, 353, 358, -374, -215, -559, -850, -318, 56, -314, -226, -5, -68, -86, 55, -312, -119, -137, -415, -312, -311, -501, -439, -931, -686, -336, 402, -69, 11, -535, -56, -79, -533, -866, -1082, -318, -209, -246, -357, -357, -183, -152, -233, -455, -515, -766, -981, -852, -512, -532, -480, -927, -514, -859, 225, 18, 62, -90, 161, -447, -141, -552, -613, -525, -188, -61, 0, -184, -165, -388, -415, -462, -306, -653, -866, -779, -586, -559, -843, -891, -379, -675, 360, 55, -87, 0, -158, -1093, -104, -429, -194, -28, 37, -42, 213, -216, -123, -172, -3, -233, -126, -258, -765, -551, -781, -747, -557, -385, -203, 68, 464, 79, -37, 17, -736, -1285, -82, 21, 177, 199, -191, -77, 122, -88, -137, -208, 13, -327, -240, -361, -609, -356, -595, -543, -344, -304, -129, -80, -494, 25, 87, 40, -93, -392, 489, 757, 628, 242, -146, -243, -431, -281, -440, -167, -158, -219, -126, -34, -537, -283, -43, -76, -305, -538, -235, -343, -76, 46, -42, -70, -146, 112, 403, 333, 77, 39, -89, -66, -157, 297, 16, -247, 106, -91, 119, -17, 14, -77, -54, -342, -492, -633, -453, -79, -57, -66, -78, 64, -19, -10, -459, -149, 282, 415, 484, 904, 561, -2, -33, 562, 870, 411, 97, 128, 436, 703, 231, 322, 707, 243, 57, 70, 61, -78, -16, 48, 70, -69, 405, 677, 717, 296, 443, 653, 860, 236, 100, 486, 749, 365, 485, 1053, 880, 494, 140, 486, 284, 242, 54, 32, 47, -55, -73, -30, -36, 9, 64, -3, 68, 59, 6, 0, -23, 67, -246, -361, 1, -131, 54, 69, 31, -6, -22, -20, 30, 33, 34, -57, 34, -51, -13, 84, -29, 40, 20, -105, -492, -225, -210, -175, -354, -416, -403, -219, -179, -653, -702, -575, -647, -385, -317, -741, -658, -446, -67, 71, -18, 57, 4, -53, -234, -321, -381, -111, -111, -194, -251, -350, -468, -817, -558, -544, -517, -73, 39, 242, -669, -874, -508, -361, -333, -698, 157, 402, 76, 43, 54, -54, -266, -439, -166, -96, -529, -665, -519, -628, -770, -570, -508, -836, -800, -45, -73, 107, 215, -253, -408, -164, 12, -276, 341, 586, 375, -42, 25, -9, -267, 162, -431, -420, -619, -918, -1069, -1040, -1323, -753, -1001, -804, -667, -278, -324, -166, -24, -403, -492, -103, -105, 191, 772, 784, 74, -17, -49, -81, -467, -92, -320, -112, -240, -425, -658, -552, -491, -63, -238, -506, -576, -600, -502, -380, -384, -343, -35, -81, 136, 280, 512, 773, -98, 145, -85, -47, 428, 220, -391, -402, -153, 86, 262, 430, 368, 174, 65, -13, 203, 405, 169, 62, 174, 52, 169, -119, -185, 74, 163, 542, 392, 653, -50, -221, 496, 70, -67, -174, 71, -22, 268, 263, 213, 180, 275, 265, 541, 398, 302, 249, 124, 2, 115, 188, -115, 34, 66, -127, 123, 625, -310, 122, -34, 164, -134, -129, -115, -234, 121, -34, -31, 209, 155, 173, 305, 296, 649, 437, 109, 72, 329, 49, 47, 141, 256, -223, 223, 278, -38, 326, 148, -284, -183, -32, 47, -139, 24, 251, 207, 356, 259, 314, 158, 215, 296, 218, 82, 178, -2, -416, -216, 105, 121, 224, -159, 450, 4, 273, -421, 244, -420, -90, 38, -197, -128, 39, 10, 107, 53, 15, -239, -217, 56, -225, 112, 84, 148, -214, -200, -28, -23, 266, 0, 141, 250, -473, 232, 677, -23, 143, -126, -138, 122, 81, -273, -139, -295, -179, -263, 61, 25, -108, -54, -278, -262, -69, 261, -200, 237, 600, 114, 117, 72, -200, 502, 614, 357, -117, 21, -189, 26, -302, -269, -362, -761, -92, 175, 188, 51, 108, -6, -183, -210, -59, -65, -66, -93, 902, 554, 281, -19, -414, 116, 132, 273, -399, -198, -202, -34, -222, -301, -378, 17, 313, 187, -5, 107, 160, 24, 112, 252, 135, -385, -589, 27, 690, 114, 124, 287, -135, -318, 425, 545, -692, -137, -241, -25, -128, -282, -263, -105, -140, 1, 84, -2, 27, -102, 79, 381, 81, -369, -422, -8, -31, 568, -243, 255, -51, -415, -230, 161, 186, 362, 320, 492, 97, 25, 32, -15, -259, -292, 66, -91, 207, 166, 255, 217, 174, -188, 28, 85, -262, 427, 199, 116, -123, 137, -463, -67, 407, 530, 358, 567, 829, 649, 592, 383, 41, -310, -219, -310, -129, 70, 106, 224, 60, 138, 183, -167, -675, -268, -350, 38, -78, -265, -366, -553, 223, 523, 583, 696, 818, 772, 655, 576, 406, 16, 133, -60, -142, -95, -63, 185, -203, 107, 114, -229, -872, -103, -587, 225, -76, -233, -161, -404, 315, 422, 178, 48, 210, 156, 259, 372, 151, -129, -36, -121, -80, -138, -141, 97, -346, 268, -71, -1055, -768, 107, -413, 27, -405, -385, -620, -688, -465, -51, -339, -448, -441, -683, -638, -301, -420, -401, -193, -82, -185, -96, 101, 22, -250, -12, -498, -628, -189, -640, 54, 77, -634, -733, -865, -994, -1155, -651, -792, -912, -647, -858, -990, -815, -425, -137, -39, 174, 219, -67, 139, 385, 55, -221, -86, 87, 655, -720, 67, 25, 29, -179, -211, -1010, -1549, -1317, -1127, -1448, -1038, -811, -661, -565, -443, -230, -137, 319, -65, 165, 33, 260, 138, -441, -449, 322, 527, -860, 79, -80, 40, -81, 390, -660, -1136, -816, -913, -1104, -762, -293, -304, -87, -452, -537, -474, -67, -39, -200, -483, -12, 18, 3, 34, 451, 423, 181, 13, 37, -59, -122, 718, -319, -346, 288, 63, -271, -90, -30, 120, -97, -303, -397, -328, -235, -400, -544, -395, -139, -79, 404, 567, 784, 573, 212, 75, 55, -32, 263, 728, 364, -14, 877, 908, 681, 326, 468, 412, 270, 108, -316, -292, -298, -150, -375, -505, 51, 324, 36, 525, 351, -475, -348, 25, -43, 78, 361, 318, 583, 997, 565, 1294, 1105, 955, 658, 720, 749, 500, 177, 191, 336, 65, 130, 468, 636, 841, 422, 444, 605, -142, -229, 53, -29, -40, 78, 130, 320, 862, 861, 996, 929, 609, 838, 1112, 1356, 1394, 1238, 866, 1023, 1045, 969, 726, 1107, 676, 73, 387, 110, 104, 25, -49, 29, 14, -15, -51, -338, -651, 219, 466, 558, 60, 177, 296, 460, -40, 731, 806, 619, 335, 204, 103, 275, -48, -69, -62, 19, 53, -33, 14, -27, 72, 60, 55, -33, -63, 62, -10, 56, 38, -1, -63, -66, 2, -16, 16, -74, -8, -36, 40, -4, 54, -61, -26, -47, -81, -80, -59, -57, -74, 78, 77, -73, -29, -100, -145, -118, -46, -195, -180, 11, -75, -235, -296, -222, -62, -60, 96, 235, 150, 5, -5, -70, 87, -15, -78, -8, -87, -68, 85, -260, -124, -215, -111, -154, -328, -109, 141, -187, -936, -1071, -548, -455, -306, 33, 135, 189, -96, 7, -183, -54, -7, -72, 38, -69, 32, 476, 178, 209, 300, -62, -313, -733, -906, -617, -288, -361, -641, -455, -205, -583, -473, 30, -96, -61, 289, 236, -102, -290, -299, -471, -15, 84, -35, 506, 687, 767, 54, -322, -353, -349, -481, -326, 166, -66, 133, 162, 293, 228, 77, 276, 350, 133, 153, 284, 372, 692, 241, 559, 45, -5, 78, 703, 891, 275, 161, 303, 372, -53, -125, -308, 73, 391, 316, 165, 251, 376, 249, -71, 51, 257, -13, 183, 406, 657, 905, 160, 4, -67, 188, 86, -81, 64, 333, 349, 222, 183, 200, 137, 255, 363, 136, -66, 28, -69, 34, -18, -69, 253, -131, -115, 559, 303, 611, 201, -257, -84, -358, 27, -261, 444, 231, -70, -70, 219, 164, -7, -193, 62, -6, -73, 143, 83, -30, -128, 128, -40, -247, -160, -12, -37, 220, 465, -309, -56, -559, 491, 590, 485, 232, 363, 298, 278, 125, -19, -149, -55, -156, -317, -57, 27, -175, 24, 10, -272, -148, -42, -133, 142, 609, 794, 432, -176, -518, 380, 678, 114, -30, 531, 375, 252, -7, -76, 78, -418, -483, -390, -189, -40, 94, -119, 112, 234, 111, 67, 181, -203, 214, 515, -515, -197, -390, -10, 0, 294, -127, 303, 191, 160, 171, 10, -154, -26, -197, -97, -2, -87, 82, 110, 324, 336, -134, 223, 92, -434, -452, 136, 97, 196, -244, -471, -784, 52, 278, 193, 153, 374, 411, 226, 141, 449, 307, 365, 278, 214, 280, 316, 176, 341, 18, -56, -65, -193, -124, 612, 376, 72, -278, -446, -715, -63, 394, 174, 240, 45, 189, 137, 155, 416, 597, 445, 336, 265, 281, 124, 311, 435, 25, -363, 200, -204, -463, -66, -30, 30, -330, -494, -509, -292, 107, -4, 359, 293, 349, 182, 490, 495, 469, 437, 446, 402, 251, 169, 328, 392, -46, -72, -66, -282, -389, -399, -336, -56, 206, -168, -258, -551, -296, -398, -21, 547, 357, 67, 185, 470, 497, 517, 376, 447, 281, -262, -205, -383, -284, -120, -26, -154, -154, -696, -407, -69, 353, 844, 305, -279, -544, -565, -321, -257, -116, -1, 177, 308, 565, 636, 459, 388, 50, -244, -337, -433, -400, 312, 184, -185, -251, -503, -387, 174, 368, 506, 56, -190, -642, -330, -574, -433, -72, -172, -158, 393, 593, 471, 158, 198, -41, -63, -402, -434, -209, 9, 78, 95, -673, -671, -595, 15, 475, 266, -162, -254, -589, -486, -338, -603, -446, -728, -584, 80, 495, -10, -59, 28, -139, -286, -331, -308, 84, -24, 163, 28, -282, 387, -381, 61, 299, 35, -593, -322, -170, 11, -423, -520, -680, -591, -340, -481, -269, -594, -592, -117, -214, -334, -126, 31, -191, -302, -437, -334, -210, 870, -131, 97, -626, -510, -494, -546, -83, 15, -174, -288, -502, -495, -618, -934, -843, -659, -360, -59, -119, -97, 34, -136, -209, -320, -369, -533, -484, -129, -70, -31, 81, -212, -220, -30, 30, 43, 22, -310, -299, -203, -372, -415, -260, -77, 166, -84, 52, 47, 69, -120, -285, 203, -451, -527, -482, 192, 291, -40, 173, 165, -232, 482, 360, 305, 166, -22, -113, -105, -104, -244, -326, -205, 185, 136, 94, 4, -144, -21, -2, -177, -767, -803, -70, -131, -22, -25, 94, -61, 80, 702, 529, 372, 284, 28, -67, 45, 123, -220, -96, 104, 38, 122, 165, 14, 59, 292, 42, -327, -728, -871, -133, 197, -49, -29, 35, 64, 613, 432, -134, -202, -78, 136, 51, 16, 100, 98, 133, -39, 58, 225, 19, 167, 117, 19, -316, -580, -913, -524, -145, -415, -35, 5, 6, 291, 672, 56, -165, 155, 431, 354, 155, 315, 107, 15, 329, -127, -182, 77, -473, -253, 51, -168, -497, -594, -602, -723, -419, -102, 45, 10, -5, 447, -155, -295, -61, 765, 859, 1036, 733, 816, 59, 419, 432, -153, -216, 98, 263, 158, 268, 242, 229, -146, -264, -432, -50, -171, 48, -2, 41, 5, 25, 216, 310, 98, -30, -1, -211, -127, 156, 114, -22, 279, 91, 323, 660, 518, -610, -215, 418, -1, 109, 86, 56, -44, -7, 78, -18, -10, -88, -104, -164, 48, 153, 208, -246, -691, -35, 421, -273, -168, -70, -162, -420, 93, 391, -209, -238, -131, -66, 3, 62, 33, -39, 53, -36, 70, -85, -15, -68, 8, -71, -1, 61, 9, 86, -82, 75, -55, 55, -8, -60, -58, -83, 33, -23, 13, 55, -86, 26, -18, 69, -72, 21, 63, -87, -75, 33, 69, 82, 23, -38, -27, -17, 71, 85, 42, -62, 48, -13, -75, 79, -22, 39, -56, 43, 45, 66, -82, -83, -65, -68, -61, -37, 81, -10, 77, 18, -63, -55, -12, 35, -75, 46, 115, -37, -108, -94, -44, 55, -57, -63, -17, 21, -7, -42, -25, 49, -66, 82, -53, 14, -85, -16, 37, -53, 63, -83, -103, -3, 35, 93, -25, -42, 23, -4, -64, -102, -64, 20, 12, 15, 17, 43, 78, 73, 81, -56, -36, 45, -16, 118, 15, 77, 62, -33, -86, -45, 0, -98, 4, -53, -64, -8, -11, 11, 67, 17, 20, -8, 33, -70, 81, 88, -38, -40, 24, -18, 2, 48, 83, 20, 43, 19, 26, 31, -25, -111, -3, -74, -16, -43, -19, -15, -101, 39, 24, -3, -46, -51, -30, 82, -75, -33, 23, -31, -65, -7, -28, 79, 31, -115, -55, 40, -97, -81, -16, -53, -122, -35, 45, -97, -4, 37, -22, 37, 66, -72, -50, 75, -38, 2, 40, -25, 17, -26, -5, -47, -44, 24, 4, -131, -3, 12, -4, -129, -10, -31, -1, -69, -59, -99, -75, -63, -111, 64, 60, 21, 28, -75, 106, 0, 33, -8, 14, 110, -37, 20, -60, 2, 6, 20, -109, -120, -122, -23, -52, 38, -119, -74, -87, 32, -4, 82, -14, 54, -54, -87, 65, -31, 6, 46, 16, 26, -23, -69, -48, -33, 34, 20, 29, -41, -39, -74, -106, 66, -91, -90, -79, -39, -21, 30, -14, -23, -19, 12, 76, -44, 0, 9, 4, 32, -38, -61, -81, 13, -24, -79, -26, -45, -105, 7, -1, -43, 60, 29, -44, 30, 16, 11, -4, -75, -5, -48, -43, -56, -63, -27, -103, -47, -53, -69, -3, -85, -46, -17, -136, -113, 26, -75, -61, -3, -79, -15, -6, -1, 51, -31, -40, -33, -27, -54, 21, 110, -52, 55, -74, -78, -49, -116, 4, 20, -60, -102, -57, 74, -77, -113, -88, -97, -41, -113, 43, -62, 93, -5, -64, 40, 48, 86, -33, -28, -85, -66, -121, -20, 38, -102, -66, -113, -82, 61, 14, -18, -17, 18, -59, 1, 0, -116, 26, -47, 113, -67, -38, 9, -39, 59, 57, 40, -20, -27, -30, -78, 1, -87, -115, -80, -22, 26, -23, 30, -61, -35, -112, -52, -1, -52, -14, -12, -34, 36, -69, -70, -50, -54, 58, 8, -60, 43, 1, -54, 15, -18, -90, -123, -33, 35, -46, -41, -60, -16, -80, -38, 16, -45, 30, -107, -30, -2, 47, -53, 26, 8, -11, -77, 13, -19, -43, 31, -35, -60, -8, -47, 14, -11, 78, 95, 64, -65, -2, 37, 0, -20, -49, 84, 64, 9, 27, -73, 33, 76, 49, -18, 32, 30, 24, 21, -47, -102, -96, 70, -31, -92, 27, -25, -24, 80, -26, -77, -71, -5, -57, -50, -102, -65, 50, -70, 84, 16, -78, -76, 112, -65, -2, -23, -51, -111, 22, -30, -31, -118, -61, 50, 6, 4, -3, -7, -72, -104, -23, -36, 3, -62, -70, -69, -10, 85, 22, -16, 4, -82, 0, -26, -13, 7, -33, -127, -122, 3, -50, 28, -21, 23, -28, -64, 15, -113, -52, -15, -87, 10, 82, 10, 42, 88, 22, -78, -16, -69, -71, 36, 29, 12, -113, 0, 28, -42, 20, -9, -131, -118, 5, -42, -72, -86, -122, -92, -50, -26, -17, 62, -3, 25, 77, -28, 79, -1, -94, 4, -20, -27, -109, -60, 23, -66, 16, -27, 4, -37, 33, -47, -116, -18, -19, -17, 35, 35, -56, -40, -19, 57, 41, 73, 32, 59, -60, -74, -96, -128, 16, -112, -7, -5, -119, -75, -16, 4, -63, -95, -110, 22, -60, 20, -1, -47, 48, 70, -44, 44, 10, 68, -39, 61, -110, -117, -69, -64, -45, -102, -97, 5, -131, -88, -101, -89, -42, 37, 36, -23, 15, 75, -85, 51, 40, 21, 77, -50, -65, 75, -19, -34, 46, 34, 24, -30, -102, 19, -110, -20, 23, 37, -17, 63, 67, 56, -92, 13, -17, -11, -44, -54, -29, -42, 53, -65, 42, 74, 5, -72, 57, 82, 15, 79, -26, 57, 116, -18, -2, -31, -48, -42, -44, 84, 37, 57, 37, -86, -30, 75, 12, -18, -43, 15, 86, 67, -81, 0, 39, -55, 65, -58, 1, -61, -43, -2, -10, 41, -16, -18, 39, 54, 20, 13, -37, 6, 46, -29, -75, 76, -2, 54, 78, -29, 33, -75, 83, -1, 5, -53, -72, 70, 87, -43, 88, 43, 6, -63, -61, -3, 36, -15, 60, -9, -52, 62, 61, 81, -58, 70, -74, -37, 26, -41, -73, -9, -42, 22, 59, -8, 375, 364, 6, -80, -62, 61, 23, -71, -75, 33, -86, 76, 26, -74, 58, -14, 83, 65, 17, -54, 44, 172, 775, 363, 301, 323, 738, 761, 1139, 745, 523, 1319, 1053, 814, 580, 169, 177, 182, 269, 205, 8, -45, -16, -54, 46, -81, 71, 131, 280, 583, 766, 714, -4, -219, -109, 226, 571, 876, 162, 328, 897, 927, 820, 381, 204, 177, 128, 257, -150, -77, 81, -29, 67, 56, 156, 321, 418, 209, 423, 429, -298, 166, -204, -169, -45, 485, 512, 699, 1, -297, 300, 656, 114, 98, -41, 86, 819, 67, 23, 24, 60, -65, 224, 61, -603, -606, -636, -620, -574, -399, -119, 128, 10, 91, 264, 281, 152, 164, 429, 211, 307, 1052, 984, 965, 805, 544, 338, -7, -59, -30, 350, -284, -827, -939, -747, -265, -126, -18, 195, -136, -95, 63, 39, -26, 194, 464, 790, 480, 434, 668, 837, 700, 556, 99, 113, -17, -25, -3, -110, -685, -660, -464, -568, -110, 62, -209, -103, 17, 117, 75, 121, 260, 563, 474, 495, 468, 211, 210, -167, -319, 429, 268, -130, -59, -58, 26, -108, -301, -831, -388, -81, 123, 95, 116, 270, 313, 149, 32, -108, -44, 228, 57, 80, -199, -161, -625, -1151, -1063, -296, -129, 166, 4, 80, 583, 230, 1, -558, -280, 35, -134, -47, 144, 249, 498, 385, -199, -473, -433, -943, -1029, -1025, -1592, -1105, -1485, -1472, -616, -8, -595, 201, 35, -36, 938, 72, 334, 55, -470, 80, -105, 240, 110, 200, 516, 322, -493, -707, -965, -1289, -1368, -1460, -1973, -1817, -1290, -1065, -589, 50, -870, -320, 53, -49, 711, -125, 366, -28, -129, 108, 59, 377, 166, 32, 174, -12, -441, -625, 61, -47, -748, -754, -882, -850, -664, -725, -494, -726, -919, -388, 139, 39, 385, 742, 613, 493, 159, 418, 163, -66, 26, 74, 70, 72, -38, -24, 216, 683, 483, 355, -44, -42, -388, -347, -20, -78, -516, -392, 48, 169, 410, 687, 853, 619, 415, 653, 347, 334, -57, 271, 285, -116, -438, -303, 39, 191, 202, 575, 540, 671, 154, -185, 213, 24, -354, -90, 66, 2, 506, 726, 829, 803, 409, 231, 405, 122, -147, 243, 147, -23, -301, -312, -15, -135, -253, -251, 256, 526, 171, 52, 104, -28, -242, -55, 198, 207, -46, 485, 699, 297, -143, -152, 47, 419, 61, 188, 119, -256, -548, -451, -175, -94, -443, -208, -5, 293, 245, 146, 359, 120, -226, -342, 172, 196, -336, -621, 357, -388, -317, -285, -317, -123, -220, -212, -367, -374, -637, -478, -132, -44, -24, 49, -31, 265, 377, -81, 434, 688, 532, -100, -126, 126, -248, -445, 402, -22, -128, -142, -303, -376, -125, -104, 97, -10, -86, 47, 182, -147, 170, 290, 200, 97, 180, 7, 356, 600, 816, 482, 30, 78, -318, -356, 222, -439, 261, 49, -50, -230, -408, -36, 121, -78, -219, 3, -269, -173, 96, 334, 83, 209, 153, -115, 43, 290, 707, -67, -452, 61, -49, 10, 137, 50, 161, 93, -201, -22, -234, -58, -338, -440, -360, -103, -100, -47, 198, 146, 111, 97, 73, -10, -141, 274, 851, -447, -469, -31, 106, 216, 278, 527, -117, 5, -120, 13, -115, -60, 291, 188, -94, -60, -3, 100, 352, 75, 2, -120, -55, -194, -218, 627, 984, 152, -5, -75, -260, -210, 267, 633, 172, -216, -224, 178, 254, 2, 11, -84, -13, 77, 372, 301, 167, 112, 94, -371, -206, 90, 216, 750, 754, 220, 33, 10, -276, -740, 108, 1, 448, -12, 101, 37, 20, 118, -9, 50, -54, 182, 304, 215, 10, 10, -151, -162, 124, 228, 282, 534, 544, 579, -149, -73, -60, -454, 209, -68, -185, -414, -150, 10, -32, -54, -111, 9, 74, 207, 167, 70, -41, -23, 13, -25, -292, 166, 82, 258, 490, 593, -92, 3, 35, -388, -213, 122, 170, -134, -199, 192, 157, 5, -120, -49, 178, 225, 62, -31, -181, -250, 53, -8, -63, 94, 26, -118, 201, 427, 26, -3, 17, -254, -23, 393, 456, 543, 366, 327, 244, 0, -86, 129, 146, 13, 55, -164, 55, 36, 465, 296, -19, 43, -401, -159, -523, -61, -6, -31, -74, -265, -42, -47, -110, 386, 415, 324, 121, -304, 473, 1050, 782, 604, 392, 228, 200, 640, 1105, 559, 223, 480, 117, 211, -114, -14, 49, -76, 6, -30, 62, -8, 65, 141, 134, 166, 296, 374, 987, 895, 935, 653, 487, 332, 215, 598, 1008, 704, 710, 944, 378, 218, -49, 18, -44, 22, -14, 0, 55, -8, 27, -10, 107, 121, 439, 409, 388, 409, 227, 231, 44, -147, 158, 195, 389, 299, 595, 532, 109, 79, 44, 42, -10, 22, 49, 28, -52, -62, -38, -13, 87, -14, 71, -57, -87, 6, -18, -154, -90, 80, -51, 74, 54, -86, -41, 12, -74, 70, 54, 43, -5, 42, 38, -53, -60, 73, 243, 245, 264, 265, 253, 549, 467, 188, 160, -256, 282, 1050, 891, 662, 627, 400, 740, 682, 275, -15, 78, 74, 56, -32, 83, 105, 244, 249, 774, 1049, 959, 485, 439, 995, 957, 665, -148, -148, -451, -394, 211, 242, 46, 394, 750, 622, 600, 52, -138, -3, 68, 10, 39, -284, -103, 329, 713, 897, 420, 403, 840, 261, 426, 303, -107, -64, -298, -373, -330, -492, -272, -264, 17, -208, 327, 304, 213, 471, 36, -69, -61, -362, -723, -100, 411, 402, -6, 77, 325, 563, 81, -187, -586, -620, -567, -309, -196, -330, 196, 209, -141, -306, -313, -292, -25, 201, 413, -24, -47, 465, -383, 211, -203, -213, -220, -233, 38, 69, -203, -127, -455, -20, 51, 117, 53, -120, -119, 194, -21, -52, 112, -296, 140, 444, 322, 64, -79, 81, 374, 428, 34, -245, -268, -171, -75, -355, -438, -438, -338, -87, 269, 314, 38, -395, -599, -423, -155, -204, -435, -573, 0, 134, 213, 4, 48, -262, 109, 301, -190, -281, -153, 96, 65, -240, -341, -512, -382, -40, 14, -28, 1, -327, -901, -516, -355, -396, -1155, -1044, -698, -58, 365, 402, 646, -298, -238, -69, -169, -59, -184, -157, 101, -28, -406, -499, -169, 1, 46, 223, 63, -334, -217, -415, -391, -523, -871, -1224, -987, -597, -117, 63, 189, -193, 257, -152, 5, -469, -292, -134, -87, -79, -417, -183, -255, 66, 172, 295, -121, -358, -50, -19, -369, -489, -523, -591, -886, -514, 232, -70, 90, 100, 140, -69, 244, 40, -50, -211, 41, -157, -298, -334, -123, 109, 157, 55, -70, -310, -318, -216, -369, -479, -224, -65, -458, -415, -292, 53, 70, -739, -162, -216, -214, 60, -124, 79, -44, -381, -576, -642, -239, -22, -172, -124, -347, -512, -311, -76, -12, -212, -188, -520, -396, -1072, -513, -83, 21, -713, -398, -400, -381, -556, -298, -277, -499, -262, -265, -9, 164, 12, -205, 120, -279, -366, -202, 276, 208, 122, -88, 180, -158, -327, -37, -70, -162, -161, -55, -561, -267, -478, -461, -367, -35, 136, 191, 387, 500, -119, 4, 400, -105, 102, 217, 69, -231, 132, 745, 586, 93, 286, 494, -34, -151, -271, 122, -515, -127, -274, -248, -132, 454, 502, 582, 391, 408, -19, 61, 261, -164, 118, 268, 13, -11, 356, 534, 646, 450, 326, 401, 52, -33, -242, 231, -195, 94, -163, 139, 60, 378, 553, 432, 473, 490, 160, 113, 112, 147, 75, 53, 275, 366, 413, 645, 588, 848, 315, 687, 9, -469, -235, 309, 155, 488, 265, 302, 45, 514, 342, 385, 261, 216, 197, 656, 402, 559, 334, 287, 322, 647, 533, 554, 502, 1206, 564, 780, -59, -310, 175, 59, 244, 458, 503, 89, 295, 295, 375, 310, 44, 3, 65, 450, 429, 417, 390, 130, 170, 548, 381, 7, 42, 702, -114, 405, 8, -259, -114, 117, 483, 303, 207, 423, 365, 271, 225, 69, 353, 215, 281, 409, 353, 276, 466, 233, 22, 244, 97, 594, 557, 508, -56, 777, -68, -205, 334, 128, 548, 388, -111, 143, 24, 182, 125, 157, 244, 81, 355, 576, 508, 254, 276, -67, -87, 60, 218, 304, -103, 293, 747, 447, 53, -250, 99, 144, 300, 140, -411, -195, 66, 59, 94, 129, 138, -37, 91, 266, 67, -11, 410, -95, -129, -6, -11, -409, -263, -123, 547, -290, -91, 343, 286, 246, 210, 152, 180, -112, -47, 169, 2, -78, 15, -56, -161, -207, -65, -160, -15, -248, -476, -222, -203, -535, -658, -278, 978, 60, -42, 22, -3, 137, -82, 148, -142, -233, -236, -236, -79, -287, -165, -327, -450, -133, -240, -648, -523, -450, -671, -557, -511, -1220, -915, -435, -238, 37, -33, -72, 270, -65, -32, 196, 75, 4, -282, -299, -237, -146, -255, -729, -675, -343, -509, -988, -705, -613, -473, -361, -620, -959, -1071, -649, -478, -43, -56, -20, 164, -445, -279, -629, -633, -612, -909, -879, -858, -730, -871, -983, -732, -588, -354, -140, -145, -317, -281, -638, -516, -920, -342, 224, 182, -80, -35, -38, 56, -24, -100, -601, -687, -1106, -1270, -662, -566, -495, -1124, -901, -736, -456, -338, -493, -1312, -653, -78, -557, -186, -100, -126, 216, 333, -21, -48, 52, 17, -53, -578, -518, -583, -170, -196, -128, -453, -375, -938, -819, -1095, -856, -949, -940, -998, -958, -746, -523, -616, -326, 102, -13, -43, -40, 11, -39, 78, 7, 56, 34, -57, 71, -46, -35, -163, -343, -250, -578, -914, -135, -85, 148, -1, -126, -185, -165, -156, -81, -24, 16, -59, -81, -50, -73, -13, -14, -3, -85, -64, 64, 48, -40, 31, 87, 70, 81, -373, -204, 37, 29, 38, -48, 67, -63, 6, 34, 5, -14, 87, -71, -16, 8, 61, 52, -101, -96, -393, -308, -114, 51, -317, -626, -153, 94, 252, -690, -765, -278, 162, -227, -87, 228, -600, -249, -86, 39, -79, 87, -67, -56, -113, 5, -89, -282, -85, 38, 111, 106, -347, -336, -98, -68, -226, -868, -622, -469, -730, -343, -128, -92, -122, -470, -147, 30, -39, -52, 63, 80, -151, -216, -388, -303, -389, -818, -810, -431, -510, -179, -575, -1069, -320, -370, -675, -440, -292, -394, -387, -107, 78, 532, 135, -301, -30, 87, 48, 1, -231, 186, 182, -291, -515, -542, -839, -765, -942, -745, -70, -39, -139, -222, -323, -16, -72, 6, 535, 307, 186, 286, -75, -187, -388, -14, 56, 5, -569, 160, 42, -143, -539, -617, -418, -579, -59, 185, 81, 125, 128, 140, -337, -166, -169, -93, 5, 92, -187, 275, 281, 144, -420, 139, 12, -203, 11, 11, -193, 34, -426, -266, -424, -516, -370, 109, 83, 99, 280, 124, 4, -29, -166, -245, 46, 280, 69, 211, 270, 360, -214, -169, 77, -321, 244, 230, -194, -147, -236, -619, -477, -104, -23, 163, -12, 152, 164, 273, -17, 117, -138, -274, -60, 118, 59, 238, 261, 95, 289, -99, -681, -666, 686, 231, -154, -179, -99, -492, 81, 92, -76, 27, -67, 28, 79, 175, -7, -102, -63, -323, -237, 101, -315, -545, -62, 43, 233, -171, 63, -297, -167, -246, -170, 72, 124, -187, 16, 18, -113, -36, -77, -160, -19, 163, -159, -189, 24, -33, -183, -134, -752, -320, -401, -101, -30, -166, 178, -332, -185, -143, -127, -36, -146, 13, 111, 59, 1, 21, -42, -211, -435, -190, -270, -41, 153, -92, -156, -324, -633, -434, -417, 617, -348, -113, 273, -409, -257, -91, -350, -131, 71, 92, 128, 89, 351, 343, 351, -260, -630, -154, 15, 441, 158, 112, 185, 35, -495, -531, -477, -476, -387, -64, 26, -13, -100, -183, -36, -55, 190, 90, 367, 322, 341, 388, 270, -399, -775, -334, 80, 283, 345, 393, 234, 222, -364, -39, -746, -855, -158, -204, -19, -166, -584, 52, 341, -48, -173, 353, 233, 308, 408, 421, 91, -447, -535, -174, 400, 501, 271, 244, 235, 79, -250, -578, -913, -834, -297, -128, -9, 66, -803, -117, 79, 41, 119, 320, 124, 304, 361, 100, -51, -502, -590, -62, 465, 477, 278, 283, 346, 69, 129, -781, -1092, -649, -419, -198, 228, 58, -34, -1, 224, 43, 154, 270, 377, 376, 348, 45, -48, -540, -728, -36, 408, 680, 137, 141, 19, 15, 337, -298, -1144, -633, -456, -323, 171, -647, -187, -187, 159, 2, 181, 414, 435, 326, 288, 195, -171, -592, -453, 159, 727, 501, 225, 29, 169, -74, -228, -420, -1014, -898, -899, -673, -13, -459, 129, -465, -175, -19, -44, 370, 201, 271, 363, 11, -242, -326, 51, 573, 753, 399, 307, -33, -45, -67, -242, -64, -485, -776, -599, -401, -101, -231, 1, -119, -128, -237, -10, 96, -31, 60, 10, -153, -378, -89, 164, 445, 561, 349, 23, 67, -15, 101, -466, -473, -803, -303, -480, -268, 38, -83, -278, 270, 228, 194, 133, 130, 148, -268, -233, -355, -28, -96, 253, 251, 36, -98, 41, -40, -347, -323, -803, -669, -702, -290, -664, -42, -20, 594, 428, -17, 222, -175, -54, -84, -249, -600, -405, -252, -216, -255, -152, -128, 102, 241, 285, 95, -646, -810, -677, -498, -369, 20, -698, 82, 40, -263, -190, -422, -195, -361, -372, -453, -560, -314, -250, -136, 104, -206, -261, -123, 164, -81, 15, -129, -295, -412, -226, -2, -51, 68, -588, 106, 30, 44, -602, -586, -247, -440, -652, -701, -475, -384, -63, 7, 103, -100, -149, -117, 122, -133, 164, -153, 26, -40, -26, 127, 252, 83, -101, 201, 60, 12, -56, -334, -457, -321, -619, -683, -208, -294, -48, -99, -52, -341, -52, -98, -27, 79, 223, 262, 509, 505, 291, 203, -42, 85, -138, 28, 69, 24, -150, -320, -331, -194, -221, -232, 98, 240, 51, -65, -330, -264, -502, -215, 60, -118, 33, 397, 587, 476, 737, 622, 0, 102, -3, 47, 14, -75, 482, 6, -471, 109, 202, -2, 303, 325, 294, 336, -223, -203, -198, -335, -328, -442, 228, 74, 743, 708, -25, 8, -201, 291, -60, -81, 76, -30, 43, 78, 277, 743, 908, 722, 552, 515, 332, 287, 469, -296, 56, 140, -5, -108, 101, 27, 264, 101, -238, -25, -120, 45, 41, 56, 82, -78, 7, -35, 6, -373, -51, 45, 103, 30, -83, 164, 147, -475, 234, 670, -44, -527, 66, 375, 102, -208, 7, -292, 24, 7, 62, -24, 0, -10, 33, -76, -24, 35, -55, -38, 60, 31, -8, -71, 37, 60, -18, 31, 7, 18, 35, -77, -24, 55, 17, -19, -85, 77, -28, 33, -50, -57, 56, -22, -19, 74, -53, 51, 2, 30, -65, 9, -60, 79, -21, -1, -14, -79, -86, -58, -77, -28, 63, 88, 30, 59, -34, 31, -88, 68, 44, -43, -3, -16, -12, 41, 60, -33, -10, 26, 78, 7, -50, -28, 73, -85, -27, -37, -69, 60, 52, 82, 27, 45, 38, 36, -19, 83, 77, -29, 74, 59, -32, -70, -30, 35, -82, 49, -69, 9, -5, -5, 22, -51, -32, -36, -8, 85, 15, 23, 43, -73, -64, -81, 57, 27, -42, -88, 30, 26, 45, -51, -34, -38, 19, -28, -100, -8, -38, -30, -49, 1, -49, 77, -44, -27, 0, 42, -46, -67, 12, 80, -4, -22, -56, 59, -1, -52, 61, -98, -75, 45, 30, -94, -70, 49, -69, -19, -71, -49, -55, -66, -110, -93, 34, -78, 57, -36, 14, -24, 4, -22, -24, -67, 78, -36, 23, 80, -39, -45, 49, -18, -40, -108, 33, 40, 2, -4, 0, -115, -66, 15, -110, -11, 34, -64, -59, 33, 60, 52, 64, 29, 59, -30, 65, 73, -109, -106, 45, -98, -53, 12, -21, -98, -64, -39, -123, -89, -71, 28, -17, -27, 23, -42, 17, 42, 58, -54, -17, -13, -76, -11, -30, 84, -81, -56, -56, 42, -117, -19, 32, -68, 10, -72, -46, -51, 31, -112, 2, 17, 4, 49, 44, -30, -20, 15, 60, -77, -54, 87, 31, -58, -19, -105, -68, -50, 24, -90, -2, -60, 43, -9, 31, -45, -32, 46, -13, 29, 4, -50, 7, -4, 36, -15, 65, -59, 82, -72, 58, 46, -60, -22, -27, 27, -94, -54, -71, -64, -46, -92, -47, 42, -106, 14, -23, -86, 5, 60, -32, -23, 10, 10, 11, 45, -86, -28, -72, -107, -94, -12, 27, -2, -76, 49, 27, -4, -30, -36, -103, -116, 33, 26, -113, 31, 30, 78, 6, -28, 36, -83, 36, 84, -77, 5, -106, -1, -109, 33, -98, 38, 38, 2, 51, 36, -90, -58, -14, -17, -65, -98, 0, 71, 58, 61, -42, 29, 74, -55, 24, 39, -26, 35, 27, -83, -28, -114, -128, -58, -65, -111, 45, -62, 21, 7, -8, -35, -103, 44, -18, 41, 49, -47, 7, 48, 14, 40, -34, -64, -24, 57, -58, 31, 1, -16, -40, -70, -92, -54, 53, -87, -42, -63, 33, -95, -49, 26, -41, 6, 60, -52, 25, -68, 46, -20, 43, 57, 56, -42, 9, -30, -58, -113, -118, 21, -20, -65, -10, -43, -114, 25, -90, -17, 46, 76, -61, -23, -40, -58, 10, 59, 22, -61, -86, -74, -30, -78, -75, -93, -83, 29, -91, -44, 39, 40, 64, -76, 12, -20, 39, -76, -67, 32, 26, 29, -56, -76, 41, 61, -27, -62, -41, 8, -86, -84, 77, 41, -85, -76, -85, -24, -100, -15, 6, -41, -4, -117, -10, -71, -24, 69, 48, 7, 6, 72, -72, -40, -20, -57, -66, 12, 29, 45, 4, -39, 42, -34, -99, -104, 112, 88, 34, 2, -29, -5, -65, -109, -68, -53, -4, 64, -2, 47, 48, 29, 63, 8, 51, 79, 50, 13, -32, -58, -43, 5, -44, 50, -45, 43, -38, -102, -121, -77, -58, -101, -65, 8, -52, -62, 32, 17, 59, 78, 85, 4, -41, -39, -68, -87, -15, -79, -101, -65, 7, -41, 94, 64, -95, 50, 17, 33, -68, -42, -87, -73, 49, 83, -64, 46, -40, 55, 47, 84, 58, -72, 26, -72, -35, -81, 34, -24, -51, -27, 59, -93, -87, 42, -64, -33, 39, -99, 8, -13, -14, -41, 22, 72, -31, -34, -75, 62, 54, -86, 80, -46, -22, -25, -94, -113, -12, -75, -68, -94, 35, 26, -14, -128, 10, 26, -22, 77, 32, -86, 3, 72, 45, -16, -8, -21, 83, 3, -6, -31, -120, 20, 20, -49, -89, -11, -59, 20, -78, 25, -101, -44, -42, 32, 2, -52, -78, -71, -35, -33, -17, -53, 19, 57, 16, -39, 6, -43, -72, -85, -73, 23, -11, -20, 17, -12, 19, 20, -50, -61, -118, 84, 33, 77, -76, 23, -29, 68, -2, -14, -81, -63, -58, -81, 88, -14, -68, 50, -3, 32, 25, -55, -88, -94, 1, -116, 16, -69, -71, 67, -36, 37, -84, -38, 3, -64, -51, -25, -48, -14, 0, 41, 50, 3, 11, 21, -77, -28, 79, 9, -64, -44, 7, -60, -25, -6, 87, 15, 83, -51, -65, 39, 31, 23, 6, 7, 36, 10, 70, -76, 10, -23, 66, 19, 84, 26, 77, 79, 81, -35, 60, 39, 25, -50, -76, 75, 80, 65, 17, -57, -68, -65, 3, -6, 60, 17, -83, 21, -75, -41, 63, 81, 13, -10, 36, -69, -183, -92, 210, 170, 80, -60, -23, -45, -51, 62, 55, -36, 60, 21, 31, -84, -53, 27, 55, 84, -41, 82, -28, -120, -99, -30, -209, -519, -162, 237, 494, 637, 691, 369, -298, -478, -466, -286, -76, 225, -45, -30, 75, -61, -34, 2, -6, 79, 75, 22, -249, -14, -239, 81, 347, 567, 921, 797, 808, 768, 962, 285, -329, -373, -746, -577, -370, -237, -485, 61, -86, -58, -25, 42, 347, 371, 30, -55, -268, 257, 295, 395, 444, 651, 667, -133, -491, -310, 40, -390, -1021, -350, -200, -612, -577, -858, -533, -288, -353, 56, 33, 68, 429, 377, 353, -173, -205, -382, 4, -491, -193, -24, -243, -50, 54, 122, 395, 145, 255, 470, 48, -497, -335, -236, -777, -672, -718, -531, -65, 12, 532, 522, 316, 49, -171, -276, -492, -300, -535, -631, -705, -433, -41, 106, -92, -333, -267, -51, -407, 87, 277, -18, -200, -831, -539, -548, 21, 6, 221, 343, 80, -370, -631, -557, -887, -221, -226, -2, -342, 33, 251, -178, -60, -291, -193, -129, -483, -397, -7, 41, -397, -317, -127, -69, -59, 34, 284, -216, -528, -593, -725, -367, -547, 40, 232, 248, -223, 103, 441, 136, 145, 272, -189, 189, 175, 61, 6, -84, -760, -1003, -131, -117, 83, 31, 344, -43, -421, -536, -312, -14, -88, -19, 281, 110, -344, -88, 300, 232, 78, 352, 28, 152, 172, -126, -271, -229, -817, -922, -261, 88, -26, 446, 162, -179, -660, -314, 4, -32, -44, 237, 58, -98, -347, -329, -273, 315, 488, 144, 9, 13, -224, -160, -163, -366, -620, -436, 344, 386, -54, 508, -343, -761, -605, -276, -181, -136, 15, 143, 84, -261, -566, -592, -279, 448, 517, 315, 37, -252, -324, -280, -239, -481, -253, 193, 348, 339, 33, 485, -499, -291, -74, -105, -462, -202, -112, -11, -172, -515, -780, -420, 143, 453, 278, -92, -86, -228, -144, 43, -153, 87, -35, 369, -515, 518, -23, 65, -110, -115, 130, -164, -814, -584, -575, -825, -1175, -1333, -263, -76, 320, 120, 254, -139, -179, -216, -251, -85, -26, 213, 236, 498, 274, 545, 237, -10, 56, 307, -124, -572, -959, -1034, -658, -686, -457, -223, 24, 240, 188, 15, 219, 10, -64, -83, -234, 32, 265, 821, 799, 624, 218, 226, -53, 88, 601, 791, -46, -548, -811, -554, -380, -133, 59, 281, 331, 257, 176, 91, 313, -8, -168, 49, 40, 468, 480, 686, 427, 282, 430, 85, -86, -60, 682, -143, -381, -189, -257, -35, 405, 156, 330, 465, 327, 590, -55, -63, 52, -300, -352, -88, -72, 430, 420, 621, 511, -8, 116, 707, -49, 283, 640, 23, 100, 256, 272, 30, -27, -45, 186, 409, 444, 583, 7, -90, 209, -15, 189, 86, -126, 119, 244, 450, 470, -126, 537, 739, -32, 160, 503, 340, 412, 345, 716, 120, -297, 88, 321, 283, 575, 385, -72, -310, -21, 13, 138, 358, 278, 278, 264, 543, 437, 551, 675, 1084, 49, 65, 299, 379, 885, -32, 3, 11, 138, 108, 206, 342, 498, 332, -171, -612, -496, -174, 149, 379, 343, 288, 313, 526, 709, 879, 684, 534, 130, -579, -93, 404, 488, -443, -122, 236, 88, 17, 286, 432, 441, 346, -373, -823, -800, -349, -188, -195, -117, -258, 17, 306, 606, 383, 545, 571, 38, -516, -287, 253, 664, -226, -194, -105, -260, -213, 171, 163, 198, 2, -399, -884, -602, -633, -610, -626, -224, -456, -137, -32, -87, -157, 577, 264, 163, -17, 20, 37, 361, 229, -18, -318, -483, -122, 137, -270, -99, -193, -311, -726, -927, -1065, -732, -655, -564, -841, -667, -359, -126, 22, 805, 13, 99, 24, -197, -324, -29, 317, -288, -342, -232, -238, -319, -318, -485, 49, 106, -760, -498, -374, -321, -133, 113, -612, -508, -682, -217, -113, 523, 24, -44, 39, 141, -259, -112, 66, -110, -146, -142, -210, -59, 139, 217, 169, 22, -58, 231, 40, 195, -41, -69, -398, -426, -696, -188, 111, 554, -23, -42, -48, 41, -367, -592, -181, -341, -548, -411, -196, -239, 36, 14, -46, 130, 79, -281, -328, -153, 70, -118, 219, -61, -427, -240, 225, 256, -25, 10, 69, -57, 106, -302, -244, -130, -153, -333, 73, -291, 287, 345, 134, 42, -148, -85, -161, -156, -876, -513, -181, -361, -452, -244, 94, 83, 49, 53, -39, -53, -81, -245, -624, -552, 36, -34, -247, 277, 631, -173, -506, -327, -624, -637, -340, -306, -584, -663, -356, -258, -44, 55, 59, -67, -25, -80, -45, 47, 56, 53, -66, 9, -70, 18, 58, 292, 360, -58, 20, 209, 276, 51, -98, -83, -73, -52, 3, 1, -47, 79, -55, -5, -50, 22, -24, 72, 73, -34, 15, -47, 20, 87, 7, 59, 68, -78, -57, 58, 64, -31, -32, -27, -32, -17, 10, 19, -76, 59, -87, -42, -63, 6, -81, -50, 27, 23, 113, -74, -2, 50, -85, -29, -615, -319, -547, 264, 571, -22, 34, 352, 731, 774, 671, 109, 138, 15, -4, -68, -82, -26, -81, 170, 217, 297, 114, 23, -109, -485, -554, -216, -604, -871, -260, -291, 407, 817, 465, 575, 1169, 1303, 1118, 605, 681, 217, 27, 68, -36, 68, 43, 542, 756, 800, 24, -56, 39, -265, -444, -350, -798, -672, -609, -508, 194, 465, 336, 513, 640, 554, 531, 431, 740, 254, -240, 156, 15, -35, 19, 327, 298, -476, 113, -376, -439, -237, -304, -246, -649, -349, -95, -118, -113, 145, 113, 154, 378, 230, 316, 121, 853, 276, 72, -275, -356, 81, -1, 893, 264, -612, 120, -209, -427, -481, -232, -404, -531, -197, 66, 83, 264, -8, 309, 145, 302, 297, 19, -39, 581, 776, 117, 146, -47, 56, 236, -270, -449, -88, 312, 37, -328, -505, -499, -483, -268, -97, -26, 89, 332, 115, 182, 215, 148, 226, -492, -321, 195, 743, 921, 400, 268, -9, 784, -474, -407, -69, -158, -399, -195, -278, -475, -575, -529, -128, -67, 380, 292, 270, 153, -6, -94, 260, -290, -340, -60, 127, 580, 512, -24, -39, -315, -671, -231, -487, -95, -124, 32, -457, -727, -686, -602, -262, -60, 229, 267, -38, 20, -261, 70, -23, -94, -140, -54, 195, 609, 510, -104, -163, 78, -498, -633, -54, -316, -10, 314, -253, -537, -555, -517, -474, 66, 420, 486, 122, -281, -382, -346, -581, -625, -1162, -1010, -121, 304, 107, -86, -112, 214, -377, -541, -278, -761, -257, -208, -276, -425, -296, -478, -149, 588, 601, 588, 179, -178, -227, -6, -870, -1370, -1858, -1238, -631, -37, 368, 61, -43, -182, -338, -524, -421, -232, -277, -126, -255, -372, -389, -520, -23, 388, 542, 437, 186, -56, -54, -339, -679, -1081, -1317, -857, -518, -97, 304, 293, 46, -240, -337, -34, -269, -82, 57, 172, -23, -3, 25, -107, -64, 206, 348, 244, 18, -128, -134, -466, -75, -353, -368, -550, -1182, -839, 392, 388, 149, -565, -280, -291, -439, -135, 483, 350, 81, 104, 36, -115, -90, -40, 218, 130, -55, -240, -176, -114, 483, 184, -203, -2, -1051, -702, 365, -80, 50, 123, 10, -239, -275, -57, 508, 104, 295, 215, 176, -200, -132, 137, 81, 43, 23, -328, -89, 115, 532, 412, -28, -243, -747, -529, -362, -59, -78, 251, 465, -302, -360, -21, 283, 363, 314, 17, -420, -434, -59, 10, 137, -27, 138, -156, 58, 99, 382, 583, 330, 318, -187, -244, -24, -205, -36, 528, 361, -459, -160, 322, 216, 120, 110, 47, -405, -445, -290, -171, 122, 55, 86, -220, -20, 249, 391, 533, 265, 290, 402, -255, -438, -459, -50, 319, 286, -289, 118, 272, -55, -100, -1, -42, -150, -243, -311, -59, 236, 126, 147, -92, 19, 12, 158, 399, 61, 417, 269, -574, -199, -574, -571, 236, 140, 816, 237, 207, -153, -59, -98, -34, -389, -323, -206, -4, 123, 302, 395, 237, 211, -170, -100, -172, -571, 119, 120, -136, -407, 157, 104, -475, -44, 876, 147, -17, 165, 11, -203, 197, 37, -143, -291, 25, 30, 326, 576, 417, 390, -38, -92, -81, -231, 220, 511, 20, -294, -61, 25, -352, -462, 371, -30, -215, 289, -149, -150, 103, 110, 190, 28, 67, 222, 316, 414, 416, 540, 42, -95, 2, -63, -51, 302, 0, 31, 408, 106, 121, -416, 125, -74, 154, 7, 198, 183, 228, 184, 151, 183, 124, 315, 362, 378, 284, 269, -86, 10, -162, -520, -247, 285, 135, -424, -48, 167, 62, -354, -59, 90, 184, -340, -95, 15, 118, 301, 75, 34, 60, 108, 334, 164, 186, 127, 87, 102, 22, -112, 8, 15, 238, 393, -27, -39, -67, 503, -58, 365, 80, -61, -30, -41, 346, 304, 128, 173, -27, 53, 256, 72, 19, 129, 64, -160, -410, -821, -523, -247, 67, 398, -56, 11, -76, 264, -26, 142, -175, 121, -69, -212, 643, 107, -273, -342, -165, 7, 0, -471, -163, 73, -72, -431, -47, -406, -435, -208, 547, 517, -22, 73, -12, 292, 303, 43, 83, 381, 77, -117, 192, -708, -1015, -360, -267, -47, -769, -1336, -416, -224, -711, -337, -211, -64, -244, -91, -75, 58, 11, -71, 48, -49, -104, -100, -116, -7, -215, -60, -80, -242, -607, -966, -1113, -824, -122, -85, -394, -234, -665, -288, -162, -346, -255, 9, -34, -35, -10, 83, -71, 42, -76, -33, -25, -35, -59, -54, -94, -305, -313, -225, -835, -618, 89, 11, -49, -705, -188, 8, -76, -24, 52, 81, 65, -16, -40, 85, 26, 87, -29, 59, 23, 26, 75, 69, 62, -52, -73, 148, 43, -11, -57, -83, 9, 75, -8, -46, 10, 64, -85, 10, -77, -15, 0, -83, -74, 81, -33, 55, 41, -159, -107, -187, -75, -239, -121, -336, -70, -291, -484, -647, -585, -88, -83, 42, -177, -310, -245, -31, -22, 54, -2, 86, -80, -65, 74, -164, -56, -229, -230, -119, -321, -377, -342, -574, -752, -1061, -609, -522, -812, -966, -299, -208, -156, -222, -370, -284, 35, 61, -36, 53, -66, 78, -785, -637, -112, -788, -843, -1057, -827, -563, -590, -749, -339, 26, -562, -812, -615, -204, -37, -174, -492, -261, -457, -138, -108, -228, 10, 48, 15, -79, -450, -443, 224, -527, -846, -971, -1222, -590, 114, 217, -362, -754, -512, -38, -135, 76, 418, 247, -44, 51, -73, -358, -559, -429, -352, 14, -78, -72, 5, 185, 632, 345, -4, -68, 254, 238, -240, -143, -809, -733, -353, -162, 49, 276, 141, -163, 283, 368, 374, 363, -451, -596, -295, -22, 216, 142, 498, -37, 333, 582, 402, 258, 192, -155, 127, 153, -237, -679, -680, -262, 311, 325, 607, 342, 122, 324, 33, -196, -455, 32, 254, 45, -459, 490, 416, 85, 97, 234, 228, -126, 180, 267, 92, 181, -105, -549, -538, 174, 591, 551, 813, 381, -144, -98, -185, -21, -236, 62, 180, -255, 290, 571, 268, 104, -9, -145, 67, 118, 474, 221, 290, 125, -319, -761, -407, 211, 719, 665, 268, 109, -205, -141, -184, -196, -353, -370, -169, 46, 833, 128, -367, 391, 111, 10, 142, 384, 670, 41, 4, -28, -657, -1094, -368, 679, 482, 485, 130, -96, -132, 286, -100, -438, -280, -669, -452, -8, 692, 196, -181, 154, -58, -451, -435, 189, 143, -398, -262, -493, -774, -901, 242, 725, 624, 252, 229, -196, -185, 133, -676, -484, 490, -470, -66, 212, 151, 278, 384, 51, 81, -252, -178, -35, 23, -79, -270, -155, -709, -233, 610, 666, 355, 313, 54, 12, -159, -138, -463, -653, -131, -319, 109, 167, 414, 596, 563, 93, -200, 164, 239, 72, -211, 390, 360, 97, -449, 4, 586, 623, 353, 147, -287, -499, -150, 53, -232, -516, -436, -68, -40, 10, 421, 545, 911, 578, 82, 11, 344, 124, -1, 309, 276, -320, -450, -36, 574, 412, 288, 186, -104, -41, 146, 197, -277, -561, -281, -176, -76, -35, 387, 404, 798, 665, 175, -109, 238, 95, 169, 95, 82, -164, -180, 103, 546, 609, 497, 212, 575, 369, 288, -12, -13, -224, -72, -571, -78, -8, 37, -98, 398, 283, -241, -246, 0, 298, 133, 9, 18, -134, -52, 49, 482, 324, 425, 302, 400, 314, 444, 225, 75, -452, -453, -329, -27, 57, 201, -105, -394, -281, -389, -79, 121, 198, 72, -193, -86, 60, -46, 189, 363, 268, 154, 339, 702, 461, 192, -558, -462, -456, -473, -724, -297, -29, 273, -304, -334, -238, -47, -211, -28, -204, -117, -95, 27, -208, -158, 127, 240, 63, 91, 365, -30, -248, -197, -308, 50, 9, -189, -110, -172, -76, 276, -35, -203, -136, -470, -753, -780, -499, -584, -506, -164, -210, 4, 36, 70, 64, 56, -173, -594, -592, -745, -663, -384, -358, 73, 207, 152, 28, 567, 693, 408, 132, -5, -503, -566, -678, -546, -390, -127, -338, -241, -125, -75, -278, -239, -460, -548, -628, -936, -883, -1072, -1020, 213, 296, 287, 12, 538, 630, 584, 178, -45, 80, -413, -546, -472, -104, -281, -246, -328, 44, -95, -308, -262, -241, -387, -620, -246, -248, -604, -517, 101, 218, 276, 76, -79, 466, 374, 534, 824, 760, 353, 137, 179, 128, -205, -233, -305, -343, -187, -234, -336, -230, -393, -297, -30, -154, -424, 48, 424, -375, -46, -70, 24, 165, -34, 354, 629, 736, 730, 487, 318, -21, -103, -180, -321, -222, -74, -261, -393, -267, -227, -369, -210, -77, -437, -63, 232, 174, -81, -8, -44, -329, -301, 217, 155, 287, 533, 34, -66, 152, -57, -118, -159, -300, -312, -178, -292, 22, -612, -789, -321, -409, -597, -69, 409, 324, -64, -87, -51, -520, 209, 519, 683, 229, 299, 124, -66, -377, -525, -353, -147, -274, -534, -432, -312, -70, -628, -297, -553, -450, -444, -516, 52, -63, 46, -23, -12, -448, 436, 763, 801, -317, -274, 128, -101, -777, -455, -305, 3, -60, -647, -491, -162, -134, -672, -732, -993, -282, 111, 348, 7, -18, -35, -81, 39, 32, 58, 106, -286, -591, -593, -372, -465, -506, -643, -666, -451, -687, -483, -85, 238, -443, -533, -993, -578, -60, -314, -83, 99, 68, -17, 86, 87, 45, -80, 201, 468, -119, -328, -275, -113, -263, -212, -305, -100, -1298, -682, -300, -33, -121, -293, -300, 79, -17, 109, 17, -24, -9, 42, 52, 26, 27, 80, -25, -50, 6, -30, -23, 87, 30, -78, -33, 25, 22, -16, 40, 73, -73, -59, -38, 3, 88, -88, -25, -40, -41, 5, 81, -6, 88, -74, 74, -73, 47, -45, 28, -135, 447, 537, 548, -20, 130, -61, 267, 429, -8, 54, -58, 58, 23, 118, -50, 46, -16, 1, 1, -42, 1, 0, 153, 72, 55, 70, 76, 286, 126, 84, 291, 827, 620, 904, 958, 822, 313, -196, -174, -344, -291, -353, 85, 2, -31, -68, -21, -22, 11, 349, 140, -145, 114, -137, -309, -195, -407, -239, 146, 123, 101, -109, -10, -122, 1, -80, -627, -416, -364, -560, -293, -36, 59, -26, -4, -59, -44, 420, -313, -60, -5, -65, -231, -238, -436, -238, -105, 44, 348, 286, 239, 210, 357, 267, 7, -334, -438, 37, -361, -478, -435, -426, 53, 9, 491, -196, -177, 95, -94, -223, 206, 195, 148, 156, 30, 136, 169, -15, 171, 77, 68, 68, 79, 207, 225, 284, -143, -579, -375, -431, 35, 82, -191, -666, 38, 19, -139, 129, 326, -19, 69, 157, 84, 59, 198, -33, 76, 69, 114, 119, -161, 208, 229, 106, 33, -891, -356, 19, -36, 159, -427, -184, -140, -247, -284, 23, 26, -69, -30, 72, 292, 239, 48, 175, 148, 329, 128, 252, -51, -46, 225, 131, -380, -640, -255, -59, 51, 581, -376, -341, -280, -179, -279, -26, 124, 201, 303, 342, 415, -31, 305, 477, 301, 390, 177, 217, -24, -150, 101, 172, -463, -553, -49, -189, -25, 521, -120, -268, 1, 485, 25, 90, 108, 234, 277, 219, 328, -211, -297, 25, 230, 361, 369, 232, -118, -126, -20, -24, -529, -122, -207, -69, -54, 686, -334, -281, 109, 444, 356, 158, 261, 237, 21, 261, -107, -614, -820, 37, 367, 436, 133, 200, 137, 103, 36, -312, -347, -299, -56, 24, -256, 359, 12, -20, 134, 375, 170, 128, 263, 378, 112, -31, -644, -1353, -1040, -297, -101, -35, -230, -252, -170, 31, -55, -288, -486, -392, 33, 20, 46, 386, 305, -209, 255, 220, 89, -206, 188, 164, -486, -886, -1124, -1198, -847, -266, -254, -152, -320, -493, -453, 51, -33, -375, -499, -405, 56, 30, -76, 585, 760, -162, -233, -143, -162, -442, -548, -550, -1272, -1451, -1065, -480, -332, -192, -211, -108, -436, -552, -378, 205, 3, -529, -196, 64, 318, 305, 43, -173, 477, -334, -985, -883, -947, -651, -1294, -1576, -1255, -1033, -805, -566, -435, -331, -184, -88, -29, -357, -281, -75, -190, -485, -177, 199, 703, 340, -15, -172, -96, -615, -1220, -878, -1201, -1329, -948, -850, -388, -581, -468, -258, -284, -171, -35, -255, -160, -420, -377, -43, -309, -555, -513, 366, 622, 507, -18, -73, -181, -574, -1196, -917, -343, -503, -327, -195, 37, -146, 10, 38, -269, -57, -93, -207, -497, -437, -436, -87, -212, -191, -372, 666, 674, 510, -59, -172, -246, -285, -785, -602, 203, 366, 259, -5, 241, 44, -57, -139, -241, 47, -236, -390, -314, -111, -338, -215, -35, -2, 101, 553, 907, 640, -3, -108, -290, -464, -267, -132, 99, 606, 271, 11, 328, 89, 79, -159, -76, -193, -383, -502, -319, 42, 124, 184, 166, 379, 94, 470, 526, 430, 37, 201, 243, -346, 77, 74, 250, 191, 148, 56, 341, 564, 273, 340, 68, -121, -185, 63, -186, 282, 424, 40, 90, 383, 374, 1315, 1066, 23, -75, 223, 372, 76, 361, 303, 497, 253, 349, 332, 501, 517, 441, 257, 110, -111, 319, 510, 60, 311, 559, 619, 132, 528, 432, 848, 720, -240, 4, 421, 149, 556, 348, 501, 54, 170, 219, 313, 477, 415, 473, 232, 253, 394, 338, 489, 351, 541, 519, 662, 463, 608, 979, 909, 603, 17, -61, -60, 214, 79, 77, 505, 87, 91, 366, 324, 182, 170, 102, 89, 297, 138, 179, 272, 379, 214, 134, 348, 940, 477, 372, 163, 112, -82, 0, 53, -78, -587, 5, 417, 224, 130, -140, 205, 99, 163, 160, -62, -58, 206, 28, -59, 138, 78, -217, 201, 707, 320, -122, 27, 46, 64, -13, -44, 175, -460, 241, 266, -103, -112, 30, 32, -357, -78, 148, -362, 17, 54, 28, 207, 26, -331, -533, -95, 351, -20, 604, 103, 194, 53, 0, -69, -463, 420, 26, -15, -329, 271, 467, 49, -481, 3, 346, -231, -28, 341, 74, -206, -468, -547, -799, -291, -271, -196, -131, 138, 347, -63, -44, -7, 72, -61, -477, -541, -377, 243, 841, 436, 278, 414, 452, 503, 766, 791, 312, -162, -216, -58, -635, -838, -69, 67, -45, 15, 8, 20, 40, 52, -49, 51, 285, 460, 371, 104, 192, 63, 430, 489, 888, 1428, 1308, 2059, 1947, 1097, 923, 485, -162, -362, -124, -20, 16, 15, 60, 79, 51, -69, 27, 28, 60, 72, -80, 32, -81, 12, 61, -63, 377, 367, 369, 243, 84, -44, -32, 66, -21, 39, 10, 50, -41, 67, -66, 5, -81, 62, -61, 66, -7, 133, 315, 169, 191, 39, 314, 376, 741, 408, 91, -64, 345, 417, 773, 750, 688, 549, 350, 315, -34, 19, 48, -72, 23, -50, 20, -282, -64, 318, 607, 307, 575, 653, 892, 1140, 1067, -223, 220, 368, 326, 685, 1026, 219, 836, 859, 353, 627, 559, 408, -63, -9, 73, 50, -454, -89, 684, 562, 523, 299, 518, 875, 704, 671, -42, -266, -32, 126, 271, 85, 347, 642, 391, 993, 769, 879, 701, 545, 165, 84, 87, -12, -402, -452, 347, 269, 160, 555, 747, 909, 930, 318, 323, -107, 49, -168, 22, 262, -17, 228, 514, 414, 357, 124, 149, 409, 482, 552, 39, 22, 665, -187, 208, -658, -453, 175, 324, 106, 304, 420, 515, 77, -40, -1, 149, 63, 54, 237, 386, 411, 245, 402, 386, 1008, 891, 599, -65, 188, 102, -560, 128, -590, -279, 132, -14, 488, 145, 64, 54, -202, 113, 151, 235, 144, 139, 231, 194, 141, 213, 363, 511, 942, 608, 376, -12, -156, -35, -273, 220, -101, -181, -240, 248, -116, 17, 22, -56, -61, -182, -140, -146, -211, -77, -163, -252, 226, 202, -301, 65, 490, 675, 375, -280, -178, 215, 54, 209, -275, -189, -129, -6, 28, -93, 50, -211, -113, -324, -570, -287, -125, -331, -221, -320, -230, -249, -601, -384, 200, 912, 729, -98, -623, 324, 405, -71, -312, -209, -75, 150, 113, -162, -211, -155, -467, -764, -566, -252, -186, -393, -280, -98, -187, -244, -220, -351, 290, 488, -508, -190, -436, 147, 112, 193, -41, 197, 137, 210, 166, -50, 80, 70, -509, -933, -794, -529, -336, -239, -138, -194, -278, -207, 177, -27, -626, -103, -332, -218, -646, -447, -247, 201, 530, 552, 378, 350, 212, -215, -68, -76, -584, -853, -639, -352, -378, -307, -1, -182, -212, -185, -10, 185, 388, 697, -161, -273, -397, -495, 159, 290, 546, 174, 301, 82, -59, -59, -32, -306, -222, -353, -261, -77, -301, -534, -159, 182, 409, 137, 514, 574, 126, -177, -670, 68, -526, -553, 311, -233, 112, -35, 7, -117, -100, -94, -305, 92, 376, 86, 354, 220, 33, 54, 209, 505, 375, 317, 249, -147, 221, 284, 136, 143, -316, -759, 320, -52, -97, 207, -189, -157, -197, -100, 56, 214, 357, 324, 281, 443, 261, 21, 34, -126, 126, 121, -130, -208, 681, 181, -31, 182, -442, -306, 656, 269, 0, 18, -75, -126, 9, -136, 20, 325, 581, 618, 329, 424, 125, 30, 159, -99, -294, -67, -93, -263, 286, -510, 566, -32, -319, 164, 877, 271, -143, 101, -83, -57, 124, 9, 94, 573, 607, 395, 340, 315, 101, -55, 38, -423, -40, -80, -139, -6, 1136, 422, 811, 48, -279, 173, 918, 40, -504, -142, 37, 306, 113, -64, 162, 242, 430, 122, 26, 90, -47, -121, -256, -332, -41, -149, -110, 30, 1029, -111, 729, -167, 50, -73, 967, 95, -301, 287, 152, 173, 189, 102, 85, 461, 398, 31, 85, 64, -154, -209, -193, -320, -20, -45, 153, 243, 801, -427, 194, 58, -201, 147, 490, 40, -337, -131, 112, -17, 187, 261, 224, 231, 397, 299, 229, 104, 235, -13, 13, -7, 150, 380, 439, 15, 921, 607, -140, 81, 23, 499, 805, 301, 86, 78, 214, 198, 371, 312, 152, 50, 106, 183, 203, 218, 171, 295, 107, 452, 294, 454, 448, 441, 726, 580, -208, 19, 695, 317, 561, 447, 35, 198, 147, 359, 332, 163, 183, 39, 209, 127, 67, 220, 682, 448, 339, 200, 425, 593, 776, 290, -187, -592, -199, -39, 84, 419, 376, 800, 352, 211, 271, 251, 109, 13, 183, 37, 112, -90, -73, 147, 232, 390, 175, 310, 663, 318, 591, 254, -137, -624, -179, 10, 3, 479, 399, 297, 196, 163, 80, 497, 137, 26, -90, 70, 21, -93, -29, 91, 150, 548, 563, 862, 1063, 1093, 1092, 119, 8, -541, -2, 33, -63, 360, 193, -144, -514, 56, 45, 24, -117, -19, -5, 104, 176, 222, -24, 260, -74, 405, 580, 672, 474, 590, 551, 358, 509, 125, 13, -87, -7, 227, -553, -525, -506, 81, 102, -44, -105, 440, -97, 365, 651, 371, -122, 197, 332, 324, 278, 264, -166, -571, -253, -418, 182, 374, 35, -19, 68, 38, 17, 367, 150, 35, 110, 488, -9, 0, 42, 193, 35, -143, -659, -411, 112, 203, -303, -285, -122, -421, 428, 63, -6, -62, -61, 72, -5, -17, 21, -206, -452, 7, 146, 232, -13, -768, -170, 253, -120, -116, -55, -261, -488, -273, -294, 39, 51, 67, -106, 46, 32, 87, 71, 67, -60, 58, -74, -30, -59, -76, -12, -65, 52, 25, 26, -66, 39, -66, -19, -16, 27, 35, 88, -69, 17, 10, 43, -29, -51, -61, 66, 61, -12, -40, -37, -48, -62, -88, -12, -58, -69, 14, 32, -50, 69, -67, -40, -47, 0, 7, 77, 42, -34, 62, -3, -13, -37, 31, -62, -25, 0, 88, -13, -45, -42, 46, 81, 38, 29, -57, -61, -107, -25, -17, -91, -5, -82, 7, -3, 45, 38, -86, -39, 28, 0, 17, 49, -12, 34, 66, -48, -15, 86, -11, 52, -44, 10, 30, -51, -3, -71, -10, -13, -52, 21, 23, -73, 37, 9, 27, -73, -85, -5, 32, -46, 56, 79, -24, 69, 56, -32, 63, 47, -79, -11, -113, -28, -132, -149, 39, -86, -117, -86, 10, -81, -19, -8, -33, -59, 40, -58, 14, 70, -17, 78, 17, 73, -76, -48, -57, -27, -103, -31, 13, -97, -70, 10, 26, -25, -12, -42, -5, -106, 22, 23, -21, -117, 88, 13, 65, 16, 22, 38, 88, -20, -36, -58, 40, 44, -109, -19, -20, -67, -117, 51, 57, -63, 44, 14, -80, 32, -91, -56, 69, -88, -10, 26, -23, 48, -67, -28, 35, 19, -40, 39, 33, 9, -92, -53, -96, -53, -86, 30, -36, 39, -83, 41, -49, 73, -75, 35, 47, 66, -43, 7, -27, -6, -39, -13, -64, 69, -19, -90, -66, -92, -22, -17, 36, 25, -31, -9, -33, 5, 20, 26, -17, -41, -41, 52, 122, -26, -75, 22, -19, -47, 61, 25, 12, 86, -109, -48, -2, -106, -73, -115, -74, -64, 4, 39, -72, -46, -47, -47, -40, 76, 24, 77, 36, 66, -35, 78, -16, -13, 84, -23, -29, 21, -81, -70, -47, -75, 3, -84, 27, 23, 24, -105, -24, -134, -145, 14, -33, 12, -47, 33, -5, -4, 90, 74, 86, -66, -52, 37, 60, -37, -11, -41, -42, -46, 47, -35, 21, -68, -31, -48, -133, -40, -94, -112, -102, 22, 60, -74, -60, -14, 77, -111, -15, -60, 38, 19, 35, -9, -25, -1, -36, -18, -90, 62, 3, -96, -58, 18, -90, -39, -82, -53, -37, -106, -33, 62, 45, -108, 28, -80, -110, 37, -75, 87, -94, -94, 3, 2, -21, 35, -28, -78, 25, -94, 28, -84, -79, -14, -112, -82, 21, 12, 21, 26, 46, -56, -117, -43, -67, -50, -73, -34, 9, -66, -57, 71, 5, 78, -56, 4, 35, 38, -14, -121, -75, -18, -85, 10, -63, -40, -38, 44, -73, -32, -18, -30, 25, -74, 62, -48, 36, -87, -82, -55, -34, -4, 88, 12, -25, -32, -79, -112, -73, -64, 15, -139, -123, -29, 51, 73, 65, -36, -18, -64, 54, 19, -69, -4, -48, -13, -129, -25, -42, -6, -36, -48, -38, -83, -90, -100, -118, -112, -138, -13, -45, -76, -85, -96, 45, 63, 43, 30, -82, 22, 57, -18, -35, -87, -72, -46, 13, 90, -17, -26, 1, -134, 7, -102, -6, -33, -81, 41, -12, -2, 27, -5, 8, -86, -36, 6, 10, 79, 52, -18, -46, -49, 8, 16, 9, -60, -10, 47, 36, -136, -113, -130, -24, -29, -59, -103, -23, -9, -105, -88, 92, 36, -69, 13, -36, -10, -43, 35, 21, -20, 46, 30, -63, 32, 56, 79, -57, -67, -135, 12, -110, -56, 37, 52, 0, -18, -96, -2, -76, 23, -99, 2, -60, 53, 28, -37, 57, -96, 39, -75, -2, -98, 55, -59, -103, -100, -10, 13, -43, 30, -113, -67, -33, -20, -65, -99, -52, 7, -67, 66, 8, -27, -18, -25, 15, 18, 61, -91, 56, -72, -101, -77, -44, -17, -12, -93, -21, 50, -100, -20, 27, 21, -17, -88, -26, -78, -7, -88, -66, 61, 38, -16, -48, 34, -4, 22, 67, 82, -58, -17, 13, -35, -111, 36, -16, -95, -8, 60, -16, 56, 55, 41, 51, 34, -65, -59, 65, -23, -1, -42, -66, 36, 43, -11, -79, 68, -35, -62, -55, 45, -78, 42, 33, -65, -90, -72, -7, 5, -91, 12, -20, 44, -55, -39, -16, 46, 55, 58, 25, 79, 64, 53, -13, 8, 10, -8, -49, 52, -32, 5, -32, 5, 22, -68, 2, 48, -85, 50, -12, 76, 59, -24, 71, -46, -32, -4, 65, 39, -49, -45, -71, 45, -64, -65, -57, 54, -61, -3, 35, -56, -7, 19, -47, -81, 54, 2, -8, -30, 6, -56, -28, -2, 17, 72, 3, -72, -28, 46, -75, 16, -65, -30, 30, -37, -17, -45, 50, 49, 43, 50, 57, 34, -21, 21, -15, 80, 69, -63, 87, -62, -81, 62, -32, -82, 60, -9, -14, 42, 37, 48, 43, 59, -31, -69, 81, -31, 86, -34, 44, -63, -63, 77, -24, -38, 30, 44, -16, -71, -45, -84, -85, -59, 71, 14, 88, -71, 68, 72, -41, -20, 202, 326, -41, -62, -58, -43, -8, 28, 61, -17, 68, 39, -65, 65, 85, 53, 36, -56, -14, -82, 106, 200, 303, 422, 348, 247, 501, 377, 238, 411, -344, 265, 248, 205, 315, 406, 407, 656, 717, 241, 80, 81, 87, 27, 69, -4, 200, 173, 391, 727, 715, 757, 239, 162, 628, 846, 734, 415, 293, 254, 275, 241, 170, 375, -41, -5, 324, 45, -304, -274, 59, -73, 73, 48, -41, 430, 109, 412, 690, 546, 218, 576, 228, 229, 337, 463, 432, 242, 368, 316, -83, -211, -218, -447, -380, -135, -208, -380, 13, 86, -13, 35, -26, -96, 88, 180, 381, 370, 286, 187, 314, -171, 66, 547, 325, -123, -317, -76, -297, -386, -819, -540, -798, 25, 126, -79, -320, -474, -37, -3, 175, -167, -42, -296, -65, 249, 286, 285, 184, 103, 391, -45, -60, 18, -3, -304, -1049, -1072, -836, -492, -640, -205, -20, -489, -524, -175, 25, -75, 282, -543, 104, -97, -246, -85, -81, -250, -280, 70, -17, 100, 85, -33, -269, -670, -1377, -1199, -681, -247, 258, 337, 143, -708, -112, -50, -3, 67, -50, -579, 120, -33, -281, 76, -129, -148, 37, 107, -12, -16, 223, -233, -707, -1140, -1314, -707, -516, -224, -78, 164, 266, -414, -28, 34, 291, -555, -346, -468, 31, -247, -510, -37, -257, -96, -57, 91, -50, 60, 2, -351, -1239, -1512, -896, 116, 204, -12, 83, -91, -44, 38, -508, -448, -321, -182, -312, -420, -48, -534, -330, -116, -361, -372, -368, 189, -84, 157, -51, -788, -1291, -814, -74, 310, 345, 383, -169, 64, 71, -307, -423, 466, -191, -125, -580, -332, -335, -319, -152, -37, -137, -411, -335, -153, -13, 409, -247, -444, -712, -364, 99, 124, 259, 481, 139, 344, 739, 547, -20, -368, -196, -185, -932, -687, -580, -568, -341, -115, -235, -431, -348, -130, 143, 196, -139, -356, -123, -34, 173, 430, 398, 584, 503, 396, 236, 292, -696, -582, -62, -132, -1069, -787, -832, -1019, -306, -198, 41, -117, 105, 269, 485, 331, 108, -223, -41, -31, -24, 75, 432, 277, 301, -197, -244, -81, -274, 17, 85, -427, -906, -727, -1088, -610, -56, 232, 244, 330, 365, 486, 260, 326, 43, 164, 75, -157, -28, 41, -196, -75, -40, 288, 70, 57, -482, -271, -87, -16, -208, -467, -736, -187, 196, 382, 368, 398, 257, 323, 46, 76, -33, 132, 222, -181, -304, -312, -2, 110, 470, 366, -22, 81, -548, -55, 73, 36, -12, -635, -404, -320, 63, 307, 363, 360, 167, -72, -157, -148, 273, 172, -110, -166, -200, 55, 162, 202, 481, 604, 13, 680, 297, 56, 54, -121, -5, -724, -407, -260, -169, -68, 96, 130, 26, 78, -27, 197, 322, 136, -252, -97, 36, 64, 72, 344, 234, 90, 190, 441, 359, -87, -43, -276, 80, -676, -177, 128, -19, -170, 153, 53, 171, 224, -4, 133, 323, 16, 121, 39, 309, -178, -40, 184, -143, -182, -210, -262, 38, -18, -408, -33, -400, -533, -5, 168, -110, 31, 162, 85, 250, 115, 75, 197, 469, 167, 114, -69, 35, -290, -213, -116, -113, 32, 7, 159, -257, -392, -69, -398, -327, -194, 130, 49, -298, 82, 196, 357, 193, 241, -20, 151, 383, 254, 63, -111, -97, -475, -437, -448, -103, 72, -85, -138, -282, -378, -20, 65, 137, -345, -235, -380, -370, -130, -55, 37, 18, 108, 348, 255, 292, -40, -126, -202, -45, -436, -601, -513, -474, -455, -570, -474, -79, 23, -78, 26, -195, -572, -758, -63, -153, -197, 127, -141, -417, -72, 170, 19, -53, 115, 178, 17, 17, -200, -277, -292, -190, -367, -691, -396, 321, 6, 28, 13, 169, -325, -85, 222, 264, -134, 92, -100, -348, -339, -180, -225, -395, 141, 79, -311, -198, 115, -172, -554, -413, -502, -760, -402, 267, -38, -37, -18, 71, -242, -88, -58, 275, 320, 393, 305, -175, -361, -419, -425, -178, -244, -555, -709, -314, 110, -209, -609, -69, 72, -551, -94, 368, 63, 55, -55, -65, -30, -789, -266, -389, 10, 237, 555, 217, -50, -309, -61, -17, -190, -449, -559, -199, -98, -416, -45, 193, 307, -4, 665, 576, -14, -8, -76, 23, -64, -210, -431, -495, -506, -434, -273, 37, -23, -82, -24, -40, -8, -272, -428, -319, -667, -815, 165, 355, 390, 192, 32, 28, -77, -55, -27, -35, -12, 81, -431, -660, -891, -799, -502, -596, -440, 173, 77, -803, -233, 185, -93, -342, 108, -187, 102, -28, -214, 88, -70, 21, -76, -58, -87, -31, -83, 41, 18, -427, -483, -466, -227, -379, 88, -12, -342, -723, -354, 21, -108, -172, -88, 104, 49, -8, -78, 1, 11, -41, -6, -2, -52, -79, -40, -83, -5, -79, 1, -40, -80, -33, -14, -8, -15, -81, 56, 75, 62, -79, 36, -27, 76, -59, 28, 30, -16, -77, -58, -40, 27, 7, -37, 60, -2, -97, -17, 26, 36, -513, -370, -385, -228, -485, -69, 30, 79, -269, -275, -187, -459, -48, -75, -24, 47, -79, 2, 80, -68, 85, -34, 59, 15, -499, -389, -363, -541, -463, -383, -318, -381, -746, -530, -371, -333, -283, -135, -222, -456, -591, 15, -376, 79, 30, -69, 29, 33, 8, 456, 281, 99, 131, 480, 531, 227, 491, 316, 293, -94, 407, 669, 441, 158, 107, 145, 441, -311, -580, -126, 688, -167, 59, -37, 12, -72, 149, 589, 22, 337, 219, 300, 301, 436, 367, 253, 361, 268, 139, 301, 198, 176, 257, 153, 27, 165, -380, -234, 759, 139, -58, -68, 19, 65, -429, 1016, 731, 725, 432, -72, 3, 64, 122, 100, -50, 44, -23, 90, 12, -68, 165, 163, 84, 48, -149, 176, 345, 30, 41, -20, -23, 225, -517, 177, -113, -121, -43, -240, -24, 162, 91, 38, -152, -244, -71, 133, 170, 36, 46, -53, 16, -278, -11, 126, 359, 202, 566, 88, -2, 167, -310, 27, -141, 97, -190, -128, -114, -138, -89, 95, 204, 90, 273, 156, 256, 158, 52, 70, 242, 1, 54, 344, 468, 392, 504, 133, -295, -846, -156, -227, 142, 162, -201, -303, -56, -16, 188, 148, 139, 135, -123, -42, -111, -81, 144, 119, 407, 472, 489, 575, 901, 1058, 591, 96, -473, -881, -958, -255, 267, 50, -64, -192, 91, 89, 26, 174, -67, 0, -163, 63, 221, 147, 95, -16, 93, 249, 309, 121, 796, 1030, -140, 215, -400, -769, -661, 159, 128, -42, 45, 15, 85, -77, -222, -12, -17, 339, 524, 195, 227, 177, -132, 81, 27, -52, 53, -123, 879, 1233, 432, 99, -487, -361, -789, -21, -92, -355, -261, -186, 27, -426, -210, 139, 364, 400, 370, 154, 6, 218, 102, 21, -94, -289, -739, -739, -73, 107, 526, 115, -36, -543, -868, 116, 18, -256, -255, -172, -57, -136, 246, 360, 97, 186, 365, 353, 193, -44, -77, -169, -467, -345, -980, -1408, -991, -790, -78, -253, -17, -383, -737, -241, -568, -539, -649, -470, -338, -85, -137, 153, 382, 427, 231, 117, 459, 234, -5, -31, -444, -101, -445, -1193, -1122, -933, -259, -190, -152, 365, -181, -466, -627, -795, -988, -1379, -1041, -930, -679, -277, 458, 141, 107, 335, 279, 245, 281, 104, 0, 119, 58, -155, -448, -631, -210, 1, -310, 291, 310, -669, -61, -401, -748, -1078, -1392, -1824, -1542, -1161, -325, -430, -254, 84, 236, 178, 165, 388, 448, 278, 191, 129, -273, -542, 284, -2, -449, 396, 338, -266, 117, 71, -24, -670, -789, -1385, -1698, -2005, -1740, -1433, -1123, -594, -125, -102, 171, 443, 580, -52, 37, 182, -1, -949, -295, -287, 72, 600, -48, 136, 183, 479, 342, 304, 237, -224, -691, -823, -971, -1075, -799, -583, -273, 140, -26, 219, 180, 36, -50, 210, 12, -1088, -172, -290, -187, 329, -408, 1040, 424, 575, 695, 601, 783, 607, 137, 312, -135, -482, -250, -245, -125, -44, -179, 44, 115, 66, -46, 57, 58, -1018, -243, -166, -37, -304, -662, 703, 308, 627, 578, 475, 842, 643, 569, 350, 454, 62, -6, -225, -402, -235, -43, 70, -12, 201, -142, 225, 368, -472, -269, -17, -76, -133, -458, 84, 154, 559, 250, 118, 424, 443, 335, 177, 61, -56, 65, -308, -104, -117, -51, -100, 250, -63, -222, -161, 4, -332, -536, -83, 57, -333, -284, -597, -449, 4, -62, 151, 40, -101, 85, 89, 105, 109, -25, -17, -100, 53, 7, -13, 138, -170, -469, -753, -373, -284, -419, -24, -71, 195, 20, -288, -783, -671, -631, -465, -252, -185, -145, -49, -146, -27, 100, 51, 175, -86, -184, -129, -132, 116, -97, -263, -382, -457, -95, 54, -64, -27, 482, 361, -405, -337, -441, -421, -361, -353, 77, 271, 132, 118, -80, -134, -22, -59, 223, 73, -154, -278, -566, -311, 237, -220, 155, 60, -82, 2, 159, 453, 266, 431, -23, -76, -113, -329, -107, 110, -266, -231, 50, -243, 270, 554, 163, -423, -647, -817, -451, -98, 39, -83, -125, 40, 35, -76, 195, 283, 453, 351, 278, 244, 7, -157, 364, 164, 49, 227, -61, 45, 101, -133, -11, -653, -149, -298, -45, 122, -30, -35, 29, -45, -68, 71, 57, 20, 667, 99, -110, 33, -438, -279, -95, -122, -331, -220, 11, 462, 111, 28, -183, -1075, -699, -443, -202, -167, -82, -23, 13, 0, -83, -41, -41, -43, -68, -125, -450, -205, -421, -858, -945, -532, -518, -667, -523, -58, -462, -819, -964, -644, -708, -236, -219, 45, -72, -45, 4, 82, -68, -79, -45, -35, -26, 69, -82, -5, 58, -84, -18, -13, -78, 34, -75, -26, -13, 4, 29, -70, 21, 78, -9, 58, -48, -59, 66, -28, -80, -12, 19, -56, 5, -10, 17, 111, 90, 419, 716, 522, 852, 1030, 875, 769, 736, 263, 576, 534, 360, 37, 11, -21, 76, 1, 32, 35, -33, 28, 0, 108, 36, 95, 130, 289, -372, -631, -720, -51, -271, 539, 161, 470, 726, 698, 922, 720, 353, -13, 268, 268, 387, -32, -26, -77, -58, 49, -95, -1, 141, -138, -165, 67, -385, -734, -664, -680, -255, 122, -110, -68, 113, 228, 485, 471, 391, 667, 535, 155, -120, 339, 554, 72, -88, 44, -68, -309, 2, 22, -102, -309, -129, -144, 73, -170, -245, -64, -106, -43, 171, -99, -13, -253, -218, 274, 371, 575, 463, 1092, 551, 38, 39, -60, 421, -374, -541, 304, 62, -190, -279, -74, 20, -25, -26, 122, 67, 135, 214, 149, 81, -141, 37, 162, 400, 287, 360, 730, -85, 26, -7, -137, -73, -590, -314, -108, -420, -341, -252, -341, 127, 121, 216, 155, 120, 167, 50, 217, 235, 318, 500, 240, 247, 381, 766, 1075, 306, 10, 28, -3, -115, -483, -567, -419, -519, 58, 17, 157, 296, 49, 80, -6, 228, 353, 530, 577, 530, 582, 735, 293, 252, 446, 498, 649, 621, -116, 28, -140, -408, -694, -811, -332, -100, -29, -41, 75, -82, 136, 140, 141, 306, 326, 350, 310, 260, 433, 470, 121, 187, 405, 85, -279, 418, 258, 6, 21, -714, -605, -268, -134, -105, -206, -90, -73, -115, 185, 35, -41, -327, -541, -774, -835, -261, -372, -417, -504, -402, -555, -420, -309, 395, 72, -15, 99, -248, -384, -294, -335, -273, -160, -77, -166, -166, -303, -157, -223, -805, -1151, -1384, -1809, -1933, -1820, -1238, -1443, -1296, -1499, -853, -165, 355, 166, -64, -12, 30, -512, -314, -116, -163, -302, -387, -172, -269, -357, -178, -78, -420, -504, -256, -743, -1473, -1910, -2068, -2107, -1927, -1659, -1215, -313, 286, 140, -60, 15, -84, -181, -241, -157, -160, -342, -234, -178, 53, 285, 146, 73, -62, -155, -116, -255, -208, -1142, -1638, -1809, -1628, -1416, -1107, -191, 375, 75, 39, -95, -47, -216, -218, -105, 54, -67, -345, -117, 242, 206, 355, 68, 6, 63, -109, -127, -53, 7, -409, -868, -984, -760, -814, -191, -3, -94, 246, 77, 115, -139, 187, -74, 296, 216, -55, -95, 148, 95, 30, -235, -12, 141, 18, -221, 216, 129, 123, -167, -460, -410, -370, -373, -87, -42, 258, 62, 71, -194, -43, -32, 6, -1, -108, -52, -2, -193, -79, -197, -13, 1, -41, -39, 136, 37, 77, 77, 19, -264, -232, -352, -39, -83, 50, 143, -261, -137, -164, -85, -408, -390, -15, -187, -11, -157, -290, -120, 86, 290, 118, 110, 50, 79, 130, 65, 145, -329, -320, -545, -401, -60, -49, 30, -246, 161, -147, 86, 192, 87, -88, -252, 63, -173, -248, -243, 105, 206, 90, 4, 339, 115, 218, 119, 82, -140, -408, -1008, -640, -511, 28, -78, -225, 231, 184, 129, 316, 172, -439, -163, -355, -497, -232, -294, 143, 174, 288, 3, 153, 28, 163, 38, -103, 24, -216, -503, -525, -641, 28, -88, 248, 11, 303, 185, 512, 49, -15, -50, -316, -28, 28, -152, 106, 121, 91, 42, 252, 156, 446, 257, 345, 362, 268, -143, -693, -591, 64, -182, 56, -333, 329, 117, 155, -61, 76, 275, 153, 298, -12, -18, 13, 86, 182, 225, 308, 457, 383, 368, 594, 278, 116, -160, -27, -60, -17, -88, -74, 314, 754, 841, 305, 269, 273, 177, 131, 264, 366, 335, 391, 394, 307, 292, 243, 226, 326, 428, 277, -10, 144, -131, -308, -72, -79, 1, -144, 468, 566, 403, 157, -217, 222, 102, 68, 116, 197, 69, 120, 146, 113, 247, 138, 56, 231, -31, -118, 11, -335, -205, 193, 68, -77, -51, 737, 425, 674, 521, 308, -33, 105, -8, 131, 66, 51, -135, -61, 47, -128, 131, -150, -211, -61, -17, -60, -144, -556, -574, 526, -74, 58, -35, 518, 521, 225, 187, -50, -59, -50, 275, 10, 13, 137, -136, -39, -30, -80, 92, 193, -206, -173, -113, -109, -166, -48, 139, 263, 43, -59, 72, 224, 345, -197, -121, -110, 38, 18, 677, 64, -126, 84, 130, 65, 26, -169, 70, 425, 499, 349, 679, 783, 668, 312, -79, -55, -21, 83, -41, 10, -35, -47, 95, 41, -169, -367, -407, -263, -310, -93, 221, -6, 216, 343, 168, -147, 214, 491, 618, 329, 192, 82, -77, 74, -59, -38, 71, -75, 83, 42, -40, 12, 34, 30, -32, -82, -68, -58, -20, -83, -51, 59, 34, 88, 50, -84, -59, -14, 62, 29, 26, 71, -18, 8, -21, -69, -28, 58, -81, -43, 51, 34, 48, -14, -16, 55, -51, 15, 49, 35, -65, -44, 48, 0, -67, -24, -24, -39, -56, 75, -12, -82, -29, 78, -38, 42, -8, -64, 0, -134, -82, -104, -19, 105, 213, -203, -672, -767, -545, 19, -80, -131, -207, -235, -94, -19, 29, -40, 65, 68, -28, -50, -337, -394, -67, 140, 35, -95, -156, -71, 20, -31, 346, 11, -525, -389, -285, -231, -70, 14, 56, 167, -6, -114, -137, 67, 51, 31, 35, -290, -462, -316, 37, -134, 78, -191, -140, -139, -337, -14, 78, -92, -319, -777, -320, 392, -450, -564, -158, 246, 726, 218, -239, -348, -51, -38, 39, -319, 67, 73, -46, -226, -542, -289, -309, -415, -656, -329, -291, 157, -91, 46, 12, 21, -153, -158, 274, 160, 321, 79, -638, -301, -34, -79, -61, -593, 209, -33, -146, -233, -168, -338, -520, -521, -408, -394, -272, -25, -117, -348, 132, -87, 61, 19, -83, 48, -204, -209, -261, -200, -273, -48, -439, 92, 85, 106, -294, -280, -270, -587, -919, -649, -453, -265, -223, -50, 52, -38, 199, 154, 87, 26, 162, 46, 44, -220, -642, -90, 6, -33, -345, 106, -25, -134, -186, -216, -324, -638, -715, -404, -48, -26, 84, -73, 208, 375, 302, 305, 245, 11, 312, 413, 555, -324, -574, -19, -57, -410, -272, -179, -16, -176, -144, 134, -206, -364, -439, -364, -40, 286, 451, 132, 93, 214, -11, 223, 58, 88, 288, 296, 219, 140, -511, 316, 154, 343, -380, -154, -410, -9, -224, -74, -302, -558, -351, -26, -81, 208, 543, 202, 112, -37, -45, -91, 126, -14, 39, 134, 208, 800, 114, -165, -596, 325, -466, -372, -282, 184, -54, -587, -566, -413, -67, -26, 77, 332, 150, 327, 41, -235, -322, -210, -296, -197, 5, 260, 360, 556, 26, -241, -335, 265, 245, 501, -307, 127, -187, -402, -390, -262, 23, 154, 92, 132, 215, 92, -187, -58, -227, -150, -215, -167, -51, 39, 464, 958, 389, 532, -70, 13, 206, 196, -21, 222, -31, -279, -142, 13, 348, -120, 227, 146, 162, 41, 272, 174, -115, -191, -250, -171, 140, -30, 599, 424, -204, -375, -673, 58, 446, -87, -157, 57, -568, -312, -85, 346, 494, 296, 210, 244, 107, 343, 601, 187, -53, -394, -428, -152, -121, 44, 60, -166, -39, -315, -208, 43, -33, 561, -14, -223, -226, -202, -157, -60, 196, 135, -116, -191, 204, 479, 424, 47, -344, -654, -365, -296, -354, -179, -287, -255, 333, -487, -177, 176, -21, 896, -564, 146, -284, -113, -93, -152, -214, -30, -174, -19, 232, 601, 372, -41, -99, -404, -413, -393, -199, 302, 273, 127, 223, -423, -132, 258, -53, -92, -521, 60, 86, -3, -169, -306, -298, -12, 61, 39, 74, 477, 449, 86, -198, -615, -643, -425, -122, 239, 232, -90, -75, -388, -150, -68, -155, -279, -233, -285, 1, -11, 1, -53, 226, 236, 40, -181, -98, 388, 293, -3, -427, -607, -646, -244, 29, -200, -194, -253, -234, -19, -10, 557, -154, -258, -603, -455, -44, -14, -43, -50, 242, -96, -83, -196, -99, 115, 52, -95, -241, -537, -408, -179, -382, -578, -711, -418, -50, 476, -255, 33, -282, -454, -1008, -533, -168, 63, -28, 82, -76, -77, -78, 35, -210, -40, -43, -12, -68, -520, -497, -282, -144, -643, -546, 100, 377, 271, -259, -7, 18, -373, -807, -750, -464, -351, 9, 257, 165, 316, 218, 149, -67, -79, 75, 3, -56, -419, -170, -515, -480, -502, -308, 300, 340, 382, 359, 38, 1, -244, -782, -484, -474, -127, -112, -4, 363, 328, 313, 259, -28, -63, -96, -232, -46, -498, -499, -705, -750, -626, 23, 258, 219, -284, 91, -29, -60, -294, -543, -834, -390, 226, -83, -82, 125, 271, 195, 262, 235, -57, -167, -131, -276, -339, -555, -649, -719, -646, 43, 472, 102, -255, 62, -24, -81, -766, -562, -721, -324, -56, -108, 219, 100, 97, 129, 226, 149, -17, -157, -1, -272, -736, -561, -582, -357, -323, 120, 61, 50, -452, 87, -71, -6, -329, -274, -144, 126, -212, -17, 211, 205, 161, 134, 450, 216, -161, -196, 190, -125, -382, -292, -58, -138, -49, 49, -85, -289, -387, -82, 22, 78, -23, 211, 155, -244, -418, 29, -150, -132, 37, 140, 207, 214, 326, 129, 608, 563, 36, 325, 141, 16, -89, -385, -336, 57, 17, -80, 32, -60, -34, 304, 588, 439, 274, 503, 301, -57, -33, 470, 1273, 557, 574, 372, 945, 1050, 726, 761, 155, -195, 187, 164, 75, -34, -78, -28, -52, -49, -33, -46, -365, -231, 485, 495, 443, 474, -323, 247, 477, 107, 1201, 981, 1088, 867, 541, 112, 27, -242, -199, -108, -9, 87, 77, -20, 61, -52, 88, 64, -29, 14, 50, -16, -4, -61, -39, 82, 138, 377, 425, 125, -49, -19, 68, 76, -30, -50, -59, -7, 76, -4, 56, 77, 39, 0, -6, 29, -66, -89, -220, -320, -192, -122, -507, -275, -545, -337, -106, 287, 203, 66, -17, -118, -119, -218, 42, -83, -68, -71, 78, 28, 0, -69, 58, -23, -202, -261, -419, -389, -63, 346, 457, 195, 129, 201, 291, 362, 434, -391, -348, -473, -243, -272, -340, 9, 238, 290, 12, -25, 44, -28, 470, 396, -352, -340, -535, -220, 514, 467, 491, 88, 629, 682, 60, -109, -47, -313, -203, 7, 84, -92, 42, -396, 76, 187, -35, 8, 23, -57, 463, 879, -261, -571, -306, 2, 523, 643, 619, 779, 824, 408, 183, 76, 96, -141, 146, -28, -219, -216, 195, -95, -242, 129, 161, -265, 41, -66, 712, 986, 119, 279, 393, 353, 182, 394, 201, -71, -60, -33, -11, 35, 288, -122, -128, -74, 10, 266, 226, -244, -403, 203, 99, -211, -24, 343, -158, 948, 495, 417, 644, 254, 437, 522, 236, -194, -97, -105, -89, -69, -45, -238, -206, -255, -9, 200, 65, -34, -234, -219, -60, -381, 53, 669, 34, 989, 906, 230, 303, 355, 175, 144, 112, -32, 216, 353, 129, -123, -209, -44, -148, -159, -93, 212, 355, -57, -386, -86, -84, -335, 49, 402, 583, 771, 756, 255, 92, 222, 60, 228, 429, 237, 518, 575, 517, 39, -19, 46, -64, 64, -48, -148, 625, 388, -324, 54, 560, 269, 359, 812, 748, 522, 743, 431, 392, 180, 296, 536, 220, 248, 477, 674, 614, 302, 225, -61, -191, -231, -101, 120, 478, 476, -257, 356, 845, 399, 296, 614, 243, 117, 433, 345, 421, 178, 191, 162, 20, -83, -84, 294, 77, 53, 138, -99, -107, -25, 42, 131, 316, 297, -175, 732, 717, 391, 449, 349, -165, 154, 294, 85, -60, -188, -563, -589, -613, -539, -539, -486, -144, 12, -214, -97, -51, 11, -153, -424, -184, -429, -280, 371, 393, 472, 124, 195, 53, -277, -356, -303, -835, -633, -1020, -780, -667, -641, -531, -363, 53, -95, -152, -125, -169, -159, -539, -632, -860, -1148, -415, 87, 43, 278, 195, 252, 24, -575, -1082, -1104, -1333, -1345, -1166, -960, -693, -344, -263, -58, 125, -123, -114, 63, 138, -324, -257, -290, -649, -1139, -259, 198, 138, 269, -110, 205, 273, -766, -1426, -1379, -1286, -1044, -599, -279, -60, -72, 11, 174, 343, 72, -324, -26, 114, -54, 88, 332, 13, -104, 90, 205, 697, 94, 1, 124, 580, -442, -954, -690, -218, 28, 197, 78, 15, -9, -36, 371, 390, 86, -297, -278, 95, 242, 166, 430, 320, -5, 132, -170, 627, 392, -33, 550, 892, -104, -244, -184, 487, 496, 298, 342, 9, -237, -46, 280, 311, -132, -287, -143, -98, 304, 163, 536, 465, 393, 428, 249, 942, 649, -76, 414, 489, 284, 502, 75, 111, 109, -9, 303, -89, -385, -87, 105, 339, 28, -38, -123, -81, 163, 9, 158, 442, 368, 343, 725, 540, 397, 83, 267, 409, 716, 741, 156, -143, -140, -60, 53, -82, -246, -419, -93, 66, 287, 168, -3, -55, 250, 201, 174, 440, 248, 249, 213, 890, 652, 67, 25, 46, -97, 384, 111, -19, -171, 32, 148, -35, -287, -561, 100, 91, 226, 123, -56, -84, 192, 204, 148, 52, 138, 558, 574, 592, 546, -24, 17, 171, 304, 509, 218, 242, 429, 194, 195, -93, 27, 9, -55, 94, 255, -23, -202, 157, 239, 223, 132, -36, 406, 421, 380, 496, 301, 54, 699, 482, 438, 102, -176, 201, 248, -36, -185, 163, -37, 48, 21, 86, -25, -154, -43, 136, 432, -21, -213, -18, 19, 529, 699, 92, -69, 52, 97, 512, -94, 173, 181, 206, 313, -74, -111, 32, 243, -37, -191, 12, -32, -37, 185, 88, 13, 131, -141, -33, 198, 565, 605, 271, -12, -37, -24, 896, -121, 258, 48, 91, 428, -143, 137, 103, 251, 184, 205, 128, 453, 374, 313, 72, -159, -123, -255, -94, 230, 466, 166, 641, 30, -58, -26, 536, 406, 389, -144, 176, -179, -195, 200, -65, 204, 180, 152, 391, 115, 58, 297, -176, -289, -400, -357, -168, -81, 295, 46, 145, -32, 51, 28, 31, 221, 111, 272, 502, 537, 471, 457, 12, -64, 43, -215, 3, -3, 150, 370, -124, -352, -452, -302, -180, 67, 179, -251, -280, -71, -38, -4, 65, -85, -385, -508, -163, 586, 392, -82, -383, -273, -465, -344, -146, 77, -188, 26, -140, -24, -85, -652, -593, 103, -100, 18, -56, 34, 60, 61, -57, -30, 310, 509, 514, 46, 29, 76, 361, 254, 94, 339, 89, 105, 79, 170, -58, -204, -224, -577, -477, 0, -83, 85, -44, -14, -84, 42, 34, -6, 39, 36, -52, -61, -33, -18, 79, 35, 87, 51, 331, 264, 36, 9, -60, 25, 85, 0, -59, 73, 37, 7, 75, 87, -51, 85, -58, 1, 53, 18, -165, -273, -70, -100, -51, -326, -671, -99, 1, 342, 482, 264, -51, -295, -64, -95, 21, 77, 1, -80, -19, -46, -28, 73, 7, -116, -128, -159, -177, -59, 338, 711, 317, -319, -157, 163, 168, 103, -104, -302, -458, -849, -565, 120, -30, -13, 159, -15, 71, -86, -73, 59, 235, -317, -502, 382, 305, -218, 748, 760, 519, 339, 371, 489, 382, 257, 569, 629, 136, -224, 327, 144, 357, -329, -158, -42, 20, 64, 70, -61, 484, 363, 373, 59, 61, 348, 226, 226, 425, 726, 600, 261, 259, 416, 55, 1, 260, 137, 79, -32, 116, -638, -784, -725, -14, 23, -53, -46, 454, -331, 331, 123, 131, -8, 204, 196, 87, 177, 320, 644, 605, 476, 516, 67, 178, -226, -277, -411, -146, -597, -487, -135, -23, 52, -72, 376, 153, 45, 40, 81, -49, -141, -15, 223, 713, 607, 599, 946, 781, 688, 630, 507, 468, 130, -22, -172, -226, -740, -646, -241, 63, -47, -87, 519, 139, 385, -134, -263, 90, -50, 281, 479, 512, 457, 535, 466, 499, 418, 359, 397, 340, 117, 240, 264, -415, -645, -797, -294, -162, 28, -228, 671, -214, -77, -314, -366, -348, -104, 113, 207, 43, -175, -145, 53, 278, 342, 297, 310, 276, 188, 130, 183, 291, -317, -659, -139, -23, -53, 63, -229, -297, 111, -325, -558, -5, -228, -315, -420, -571, -909, -928, -587, -130, 189, -38, 226, 231, 242, -44, 39, 92, -382, -583, 80, 205, 43, 111, -214, -194, 126, -183, -323, -186, -579, -732, -805, -1005, -988, -1285, -963, -413, -556, 21, 281, 363, 388, 12, 70, -285, -691, -722, 233, -132, -63, 169, 61, -490, -397, -285, -490, -631, -623, -735, -840, -773, -637, -738, -548, -368, -302, -15, 280, 195, 190, 314, 156, -208, -246, -392, 106, -458, -155, 97, -30, -545, -587, -395, -571, -754, -488, -391, -376, -124, -78, -323, -452, -149, -32, 205, 43, -13, 111, 59, -145, -588, -528, 184, 150, -194, -246, -73, 126, -340, -479, -432, -205, -249, -75, 79, -35, 444, 215, -59, -33, 36, -113, -59, -36, -9, 125, -19, -253, -337, -738, -403, -141, 37, 179, -70, 178, -135, -111, -161, 29, 233, 293, 237, 49, 450, 312, -25, 184, 222, -54, -108, 14, -43, -7, -111, -39, -185, -377, -331, 18, 236, 211, -163, 373, -545, 77, 80, 168, 33, 149, 12, 155, 467, 270, -196, -244, -260, 213, 188, 55, -20, -232, 6, 31, 139, 134, -4, -245, 257, 426, 22, 722, -67, 251, 190, 236, -35, -32, -226, 140, 216, -42, -248, -340, -352, 78, 184, 80, -240, -155, 64, 199, 323, 24, 294, -277, -48, 418, 32, 85, -225, 184, 329, 178, -269, -477, -211, 45, -79, -356, -223, -84, -142, 102, 138, -95, -156, -36, -165, -328, -332, -385, 119, 29, -41, 495, 592, -27, -68, 328, 7, 174, -109, -230, -115, -78, -35, -133, 48, -267, -41, 149, 301, 119, 193, 311, 136, -56, -126, -55, 1, -144, 493, 456, -39, -179, -295, 424, -28, 181, -155, -107, 96, -45, -234, -36, 79, -7, 8, 5, 120, 199, 204, 238, 356, -168, -93, 184, 17, -149, 348, 136, 71, -603, -317, 684, 216, 188, -208, 7, -47, -2, 29, -81, -26, -123, -125, -218, -33, -200, -305, -114, 101, -114, -475, -40, 45, -481, -212, -309, -82, 139, 397, 481, -109, -401, -238, -58, -176, -178, 88, -52, -56, -107, -128, -277, 31, -259, -376, 17, -98, -194, -238, -26, 112, -275, -194, 102, -6, 98, 656, 232, 0, -72, 7, 41, 27, 60, 167, -56, -58, -122, 15, -145, 42, -117, -313, -81, -104, -98, 9, 122, 229, -374, -491, 171, -21, 2, 400, 59, 34, 44, -44, 376, -60, -41, -35, 99, -103, -183, -193, -122, -166, -182, 96, 151, -166, -158, 96, -2, 83, -491, -529, -37, -9, -75, 467, 317, 1692, 884, 382, 216, 202, -87, 71, 46, -60, -229, -293, -78, -43, 197, -84, -64, -5, 249, 36, -315, 17, 172, 164, 75, 81, 83, -81, 16, 1081, 710, 192, 453, 804, 924, 568, 488, 340, 121, 39, -184, -139, 29, 188, 296, 524, 680, 249, -250, -265, -32, 67, 72, 58, -29, 39, 196, -177, -475, -289, 238, 1032, 1215, 1005, 304, 39, 278, 996, 596, 372, 247, 457, 498, 1057, 670, 342, -55, 20, 38, 78, 58, 57, 7, 32, 80, 195, 354, 376, 354, 308, 441, 626, 474, -5, 253, 2, -49, 135, 206, 326, 204, 56, -7, 150, 58, -31, 74, -6, -57, -59, 62, 7, 16, 64, -76, -50, -25, -83, -65, -33, 64, 481, 504, 266, 173, -2, -21, -77, 50, 69, -47, -83, 64, 25, 80, -24, 85, -9, 29, -34, 72, 131, 184, 219, 365, 198, 214, 498, 554, 816, 445, 100, 511, 471, 536, 727, 750, 806, 1108, 532, 301, 81, 76, 87, 0, 27, -47, 87, 109, 202, 676, 725, 639, 209, -334, -155, 863, 685, 110, 630, 444, 531, 245, 946, 713, 968, 1151, 599, 368, -2, -157, -83, 3, -34, 88, -189, -191, -335, 223, 834, 1013, 157, -168, -167, 475, 34, 291, 243, 345, 422, 356, 637, 474, 157, 258, 121, 147, -111, -265, -101, -50, -45, 18, -173, -190, 186, 14, 279, 507, 180, -243, 21, -307, -145, 87, 69, -95, 397, 340, 201, 383, 422, 111, -186, -442, -698, -419, -120, 92, -10, -54, 908, -622, -64, -597, -376, -50, -860, -957, -416, -282, -228, 135, 8, -28, -164, 336, 442, 604, 519, 10, -220, -438, -582, -603, 156, 123, -58, 227, -255, -391, -161, -1040, -579, -384, -667, -573, -184, -19, 99, 145, 304, 567, 540, 228, 233, -2, 179, -257, -441, -366, -901, -601, -203, 23, 55, 405, -332, -508, -740, -807, -659, -782, -461, -147, 58, 321, 171, 570, 950, 942, 411, -183, -217, -361, -592, -477, -371, -518, -662, -951, -109, -32, 308, -439, -74, -431, -610, -452, -269, -292, -147, 197, 435, 531, 407, 706, 660, 27, -208, -187, -398, -129, -313, -287, -538, -842, -566, -395, 278, 360, -113, -112, 32, -10, -228, -324, -96, -53, 108, 214, 638, 358, 80, 145, -34, -457, -523, -166, -123, -116, 84, -188, -423, -146, -505, -587, -737, -491, -56, 271, 461, 72, 31, -72, 161, -56, 45, 230, 248, 22, -213, -113, -162, -427, -111, 104, 401, -29, 230, 111, -172, 84, -565, -1029, -731, -387, -375, -40, 217, -51, 54, 195, 211, 22, 12, -2, -238, -196, -201, 173, 129, 58, 86, 342, 383, 299, 289, 242, 12, -428, -657, -877, -273, -191, -168, -199, 123, 398, 52, 47, 67, -35, -128, 70, -244, -21, -290, 125, 292, 281, 177, 514, 254, 36, 106, 124, 158, -84, -211, -1205, -954, -476, 129, -63, 93, 830, 42, -121, -158, -322, -141, 61, -130, -229, -403, -168, 209, 239, 296, 19, -30, -202, -74, 59, 603, 225, -250, -922, -680, -46, 248, -33, -51, 480, -133, -259, -428, -431, -256, -49, -255, -182, -236, 63, 95, 225, 201, -110, 16, -194, -162, 60, 392, -149, -210, -292, -921, -111, 263, -297, -412, -278, -12, -155, -343, 74, 19, -11, -351, -156, 166, 102, 269, 6, 42, -7, -77, -160, 63, 188, 160, 122, -458, -184, -1005, -41, -10, 323, 200, -207, 127, -211, -403, 51, -42, -50, -43, 308, 28, -171, -102, -233, -127, -224, -232, -302, -65, -77, 59, -98, -454, -65, -1098, 37, 23, -45, -106, 148, 94, -295, -716, -656, 161, 30, 371, 178, -47, -133, -173, -379, -218, -6, 74, 181, 350, 336, 154, -409, -456, 265, -460, 128, -123, 4, -58, 112, -232, -401, -515, -204, -79, 179, 419, -25, -240, -174, -389, -286, -125, 185, 320, 536, 38, 156, -101, -385, -750, 545, -163, 88, -25, 385, 221, 176, -306, -249, -462, -33, 50, 46, 233, -8, -85, -270, -334, -335, -66, 162, 321, 232, 184, 427, 197, -201, -558, 553, 516, -115, -20, 268, 369, 861, 329, 19, -388, -88, -220, 61, 224, 152, -15, -88, -8, 88, 154, 154, 346, 333, 424, 411, 37, -200, -68, 395, 349, 16, -36, 508, 245, 170, 514, -2, -59, 175, -125, -31, 98, 149, 317, 503, 501, 399, 155, 173, 126, 119, 317, -160, 67, 35, 82, -267, 467, 72, 86, 168, 236, 193, 570, 177, 298, 294, 128, 49, 102, 238, 316, 538, 679, 553, 312, -50, -99, -156, -63, -93, -1, 296, -213, -63, -310, 22, 71, 81, 853, 395, 227, 417, 226, 187, 297, 155, -154, -89, -24, 270, 304, 517, 111, -158, 78, -224, -88, -10, 288, 790, 198, 230, -492, 44, 70, -52, 184, -66, 261, 452, 226, 60, -252, -233, -290, -186, -7, -192, -272, 121, 133, -118, -259, -133, -114, -197, 257, 431, 347, 300, 51, 82, -36, 30, 389, -288, -257, -21, 14, 138, -52, -152, -214, -291, 20, 89, 103, -46, 26, 93, 222, 658, 533, 269, -56, -312, -424, 239, 116, -15, -81, -64, -2, 277, 281, 656, 486, 344, 334, 371, 462, 403, -13, 139, 508, -259, 68, 433, 848, 418, 759, 533, 221, 699, 154, -12, 67, -22, -50, -38, 44, 6, -9, -173, -383, -139, -69, -79, -10, -88, 106, -307, 29, 382, 633, 399, 707, 408, 151, -257, -222, -133, 33, -51, -70, 20, 11, 46, -22, 61, -50, -53, -86, 34, 27, -67, -28, -30, -269, -114, 216, 100, -12, 16, 61, 63, 80, -48, -2, 1, 8, -4, 41, 37, 77, -86, -7, 69, -59, -126, -192, -271, -371, -558, -504, -602, -572, -505, 228, -493, -183, -262, -606, -715, -834, -1014, -661, -422, -15, 85, 2, 19, 16, 30, -145, -307, -451, -238, -580, -646, -600, -678, -768, -1229, -667, -332, -563, -273, 21, -142, -157, -413, -736, -785, -811, -696, -36, 272, 27, -82, -37, 6, -65, -567, -809, -147, -454, -316, -728, -729, -614, -493, -570, -346, -261, -7, 222, -21, -138, -123, -95, 21, -194, -1262, -537, -217, -97, -21, 73, 10, -243, -580, -391, -7, -39, -9, 84, 91, 361, -64, 289, 138, 84, 54, 324, 148, -114, 209, -83, -291, -305, -377, 144, 282, 237, -326, 24, -15, -536, -92, -449, 269, 473, 299, 224, 132, 99, -271, -72, -266, -270, -136, 228, 288, 342, -64, 87, 181, 366, -41, 129, 251, -100, -270, -21, -32, -86, 83, -64, 228, 371, 202, -106, 91, -53, -545, -492, -212, -587, -667, -343, -119, 47, 96, -88, 82, 228, 193, -160, -537, 298, -136, 13, 191, -317, 359, 238, -366, -81, 37, -234, -147, 226, -36, -148, -474, -575, -684, -420, -96, 33, 123, 27, 161, 278, -114, -250, -535, 76, -223, 6, 696, 225, 308, -341, -567, -393, -134, -448, -34, 44, -43, 42, -237, -543, -570, -342, 123, 288, 134, 54, -112, -1, -44, -373, 315, 335, -187, 18, 176, 401, 511, -214, -504, -813, -518, -313, -239, -19, 61, 140, -30, -579, -946, -313, 160, 182, 197, -126, 32, 42, -352, -214, 63, 148, 0, 2, -9, 78, 671, -35, -293, -652, -371, -392, -161, 39, 174, 252, -202, -877, -739, -366, 51, 339, 68, -155, 47, -57, -581, -389, 524, 313, -69, -40, -419, -201, 45, -482, -420, -406, -186, -241, -145, -83, -66, -312, -666, -844, -736, -394, 46, 169, 223, -176, -336, -303, -615, -488, 414, 110, 32, 92, -2, 73, -63, -562, -463, -266, -379, -245, -214, -167, -211, 96, -138, -725, -715, -289, -45, -39, -40, -12, -455, -177, -1163, -613, 370, 291, 101, -32, 74, 112, -93, -358, -183, 171, -90, 11, 71, 30, 455, 581, 305, -483, -220, -223, 57, -272, -304, -150, -93, -353, -844, 536, 769, 584, 62, -25, -392, -599, 250, 197, 335, 287, 257, 254, 426, 174, 338, 606, 310, -19, 51, 179, 72, -421, -399, -445, -318, -146, -597, 102, 550, 731, 147, -59, -239, 109, 950, 168, 407, 440, 130, 301, 325, 317, 341, 275, 392, 229, 182, 296, 296, -189, -285, -570, -285, 70, 38, -115, 182, 1179, 695, 73, -268, -408, 520, -193, 457, 470, 235, 264, 395, 368, 231, 292, 293, 381, 688, 723, 513, 162, 126, 173, 752, 505, 163, 15, 423, 1923, 295, -1, -317, 58, -54, 248, 310, 472, 56, 142, 276, 170, 159, 45, 16, 429, 798, 720, 246, 413, 72, 12, 715, 526, 375, 89, 353, 1207, -190, 136, -53, 296, 265, 366, 283, 149, 165, 143, 160, -214, -497, -354, 26, 542, 612, 512, 96, 332, 309, 69, 476, 383, 294, 603, 165, -86, 316, 81, -21, 366, 139, 326, 256, 194, 143, -10, -45, -427, -631, -718, -343, 74, 304, 285, 309, 499, 17, 18, 271, 262, 170, 243, 183, 565, 71, -42, -96, 379, 82, 122, -55, -12, 207, 295, -175, -422, -472, -578, -667, -479, -249, 69, 215, 443, 46, 125, 674, 67, 50, 18, -398, 730, -81, 57, 38, 86, 478, -182, -74, 49, -120, 69, -306, -528, -471, -408, -452, -705, -455, -298, 23, 152, 451, 335, 406, 196, 439, -17, -441, -522, -2, 31, -50, 79, 655, -55, 373, 51, -42, -103, -326, -388, -82, 105, -204, -540, -328, -114, -264, -145, 306, 180, 398, 399, -2, 71, -295, -569, 60, 22, -70, 145, 273, 50, 548, 21, -40, -298, -374, -91, -134, -49, -250, -218, -126, -419, -441, -196, -215, 26, 297, 168, -340, -537, -562, -372, 75, 16, -41, -31, -159, -414, 92, -260, -414, -630, -534, -171, 27, -332, -342, -179, 11, -167, -323, 61, 6, 40, 207, -165, -430, -148, 375, 201, 1, -79, -57, 49, 32, -172, -528, -617, -666, -644, -680, -434, 46, -379, -316, -291, -97, -144, -466, -554, -773, -778, -846, -355, -285, -141, 268, 304, -83, 37, -41, 14, 38, -288, -489, -736, -557, -603, -647, -957, -792, -334, -468, -1078, -521, -463, -636, -872, -733, -1285, -761, -611, -381, -132, 69, -22, -73, -4, -42, -1, 43, -21, -2, -205, -316, -372, -378, -324, -280, -124, -74, -630, -412, -253, -312, -473, -325, -374, -403, -397, -279, 13, -42, -50, 81, 23, -59, 58, 69, -28, -35, -22, -35, -53, -42, 0, 20, -39, 53, 21, -47, -8, -4, 63, 64, 50, 35, -44, -56, 13, 6, 29, -49, 78, 33, 34, 40, -40, -18, -58, -52, -81, -140, -68, -20, -64, -11, 65, -14, -97, -117, -21, -94, -22, -263, -78, -24, 4, -85, 1, 13, -42, -12, -21, 204, 299, -76, -128, -17, -1, 23, -136, -533, -604, -621, -361, -299, -334, -682, -507, -515, -595, -405, -450, -128, 297, 403, 69, 86, 42, 72, 7, 166, 236, -294, -238, -580, -73, -19, 143, -318, -786, -528, -743, -558, -898, -403, -309, -808, -285, 206, -6, 136, 162, 425, 296, -24, -50, -30, 10, 370, -182, -512, -328, -63, -167, 438, -77, 346, 96, -164, -180, -77, -170, 116, 136, -322, -345, -32, -88, 88, 662, 516, 391, -389, -88, 58, 56, -13, -489, -868, -161, 209, 379, 276, 72, 348, 207, 249, 33, -33, -28, 252, 101, -165, -143, 91, 192, -42, 17, 517, 285, -380, -55, -210, -128, -427, -324, -55, 68, 297, 294, -46, 149, 400, 241, 138, 323, 337, 160, 369, 426, 236, 121, 226, 298, 309, -119, 251, 303, 123, -18, 492, -39, -582, -427, -230, -157, -340, 37, -36, 316, 180, 263, 232, 152, 424, 483, 315, 330, -32, 164, 512, 554, 528, 70, 353, 149, 275, -311, 94, -120, -91, -490, -330, 158, -155, -121, -35, 253, 303, 529, 511, 243, 284, 617, 445, 368, 205, 259, 372, 611, 740, 628, 236, 449, 563, 17, 246, -153, 370, -507, -260, 89, -39, 49, 211, 431, 421, 488, 333, 297, 203, 300, 445, 67, -69, 183, 125, 531, 482, 1131, 1120, 740, -195, 8, 22, -205, -195, -719, -239, 355, 267, 374, 253, 414, 304, 224, 130, 224, -22, 296, 92, 238, -7, 341, 215, 720, 631, 494, 243, 621, 218, -195, 479, -86, -274, -668, -78, 444, 654, 440, -3, 52, 201, 17, 117, 201, -1, 16, 199, 145, 79, -66, 177, 648, 585, 607, 542, 1065, 368, -49, 195, 75, 16, -619, -15, 175, 208, 47, 19, -183, -108, -255, 94, -55, 41, -255, 106, 83, 345, 144, 114, 205, 98, 202, 224, 494, -59, -74, 396, 103, 367, -605, -275, -404, -131, -85, -64, 15, -30, 70, -114, -266, -200, -331, -286, -129, -40, -10, 81, 85, -173, -395, -286, -40, -413, 110, -354, -252, -70, -494, -309, -275, -129, -222, -130, 146, 94, -50, -6, -101, -316, -306, -105, -69, -169, -175, 300, -38, -150, -203, -451, -256, -96, 135, -316, -362, -640, -112, -124, -296, -81, -57, -65, 130, 235, -16, -244, -445, -405, -329, -83, -60, -479, -346, -170, -102, -105, 349, -204, -264, -570, -236, -504, -794, -455, 95, -212, -44, -112, 49, -39, -5, -52, 11, -242, -570, -342, 48, -68, -289, -557, -405, -278, -114, 254, 29, -83, -419, -616, -44, -490, -436, -122, 369, 61, -33, -96, -15, 124, -183, -98, -176, -435, -416, -267, 152, 75, -504, -389, -241, -6, 186, 297, 500, -436, 269, -406, 305, -396, -218, -554, 297, 275, 164, 119, 398, 239, 175, 181, 146, -292, -466, -263, -16, -84, -363, -295, -307, -81, 22, -124, 263, -803, 322, -664, 20, 710, -97, -768, -13, 119, 471, 345, 414, 16, 151, 57, 340, -84, -270, -276, -218, -28, -206, -272, -108, -174, 269, 269, 525, -287, -195, -426, 3, 487, -268, -453, 104, 519, 350, 340, 467, 105, -28, -15, 67, 148, -283, -88, -166, -33, -249, -233, -225, 0, 308, 469, 224, 563, 21, -152, -30, 113, -209, -710, -4, 115, 379, 395, 183, 159, 43, 4, -111, -82, -104, -80, -267, -61, -153, -302, -279, -120, 152, 431, -51, 590, 82, 168, 15, -59, 49, -290, -260, 104, 301, 249, 204, 408, 64, 179, 236, 84, 181, -40, -316, 33, -87, -324, -359, -321, -95, 79, 146, 414, 307, 147, 24, -70, -29, -109, 150, 118, 239, 149, 140, 23, -53, 177, 372, 240, 90, 177, 300, 146, -101, -127, -305, -279, 107, 17, 491, 247, -68, 28, 33, 27, 364, -88, 125, 100, -169, -104, -87, -78, -130, -6, 482, 221, 98, 404, 312, -44, 331, 145, -143, -427, -882, -485, 46, -554, -510, -40, -87, 18, -186, -54, -328, -344, 363, 452, 96, 199, 465, 336, 276, 28, 357, 690, 440, 763, 441, 499, 265, -605, -1072, -534, 5, -369, -297, -13, -45, 65, -79, 13, -34, -363, -281, 203, 239, 437, 561, 728, 587, 753, 740, -57, 213, 667, 529, 189, -152, -205, -283, 243, -1, -82, 64, 36, -23, 48, 12, 76, 208, 230, 389, 441, 355, -10, 318, 339, 340, 452, 677, -79, 147, 458, 323, 73, -159, -399, -339, -20, 82, -70, 75, -83, 12, 45, 44, 21, -29, 75, 73, -10, -26, 27, 25, -49, 20, -4, -71, 54, -38, 73, -73, -66, -35, -31, 16, -56, -76, -36, 77, -55, -78, 81, -61, 61, 40, 34, -77, 67, 3, -12, -66, -1, 19, -84, -28, -48, 39, -15, -10, -58, 13, -59, -80, -33, -34, 25, 60, 70, -46, 22, 81, -25, -83, -63, 56, 89, 12, -51, 213, 196, -2, -326, -279, -158, -71, 243, 405, 426, 378, 84, 129, -48, -100, -28, -62, -19, -4, -37, -52, 16, 104, 183, 287, 38, -62, -275, -282, 421, 51, -258, -96, -358, -161, -99, 80, 42, 124, -1, -166, -355, 176, 273, -65, -5, -51, -15, -83, 341, 176, -285, -186, -86, 158, 9, 48, 268, -266, -309, -126, -14, -412, -228, 34, -208, -393, -221, 147, -171, 29, 857, -32, -142, 65, -53, -64, 419, 708, 181, 195, 262, 58, 80, 129, 147, 88, 90, -14, 17, 153, 103, 33, 98, 46, -308, -7, 545, 568, 607, -367, -206, 54, 97, 524, 156, 453, 148, 126, 52, 447, 34, 14, 66, -28, 320, 34, -142, 136, 78, 38, -117, 88, 43, 259, 270, 596, 304, 262, 329, -50, 502, 489, -232, 241, 425, 109, -27, -98, -206, -198, -78, -1, 136, 73, 23, 116, 114, 108, 37, -82, 57, -113, 10, 417, 369, 250, 256, -68, -331, 509, -120, 38, 215, 38, -14, 42, 26, 197, 41, 113, 50, 70, 236, 38, 107, 128, 55, -149, 22, 0, -10, 433, 122, -38, 275, 17, -64, -96, 38, 94, -111, 82, 138, 87, 64, 160, -73, 103, 117, 222, 21, -33, 132, -1, -3, 61, 52, 189, 43, 240, 179, -413, 21, 38, -106, -362, 459, -86, -58, -70, -10, 171, -20, 93, 237, 195, -69, -18, -201, -27, 1, 42, 56, 87, -1, -111, -110, -32, 424, 309, 83, -71, -169, -320, 13, -255, -183, 13, -7, 283, -34, -153, -184, -37, -22, -19, -43, -10, 127, -2, -89, 51, 250, 96, 196, 200, 477, 391, -234, 29, -4, 148, -688, -149, -49, -44, 163, 90, -76, 215, -4, 13, 424, 333, 44, -91, -30, -84, -241, 59, 72, 316, 606, 399, 678, 306, -146, -10, -107, -74, -846, 16, 138, 70, 156, -12, 121, 324, 286, 460, 516, 245, -28, -40, -141, -76, 78, -77, -141, -137, -141, 81, -115, -451, -82, -107, 294, -22, -893, -25, 65, 289, 412, 186, 255, 428, 321, 472, 555, 309, 219, 122, 7, 55, -211, -132, -200, -184, -337, -560, -386, -232, -67, 22, 162, 124, -341, -288, -68, -54, -345, -59, 348, 599, 647, 507, 430, 228, 167, -3, -48, 54, -55, 2, 191, 119, 176, -258, -629, 379, 22, 49, 207, 62, -241, -1000, -963, -1317, -912, -761, -185, 425, 306, 507, 249, 118, -20, -79, -96, 155, -7, -6, -16, 193, 58, -228, -911, -1056, 119, -45, 193, 182, -316, -935, -1487, -2007, -1531, -2069, -1969, -1540, -945, -533, -377, -482, -172, -150, -124, 15, -8, 236, 118, -29, -109, -229, -103, -413, 152, -74, 7, 85, 324, -214, -1055, -1207, -1248, -1973, -2660, -2596, -1957, -1559, -959, -729, -353, -42, -178, -26, 7, 273, 246, -127, -146, -600, 182, -69, 142, -69, -494, 45, 727, 238, -131, -118, -308, -648, -631, -869, -819, -714, -685, -653, -435, -164, -198, 43, -203, 55, 60, -136, 111, -221, 137, -385, 6, -80, 172, 23, 433, 150, 334, 389, 193, 486, 435, 271, 154, -154, -169, -165, -314, -326, -127, -114, -125, -25, -193, 2, 351, -166, -127, -147, 87, -135, 296, -113, 40, 458, 128, 203, 444, 334, 389, 443, 452, 415, 153, -88, -151, -338, -458, -124, -125, -206, -44, 3, 434, -670, -95, -31, 22, -135, -11, -174, 554, 579, 298, 246, 190, 398, 333, 409, 389, 163, 171, -141, 78, -123, -246, -133, -245, -32, -64, 109, 368, -330, -723, 378, 23, -38, 14, 479, 964, 838, 723, 392, 213, 521, 342, 355, 316, 215, 161, 171, -147, -97, -280, 5, -307, -260, -257, -319, 202, 233, -131, 343, 11, -79, 19, -2, 525, 935, 698, 548, 597, 441, 272, 325, 103, 93, 270, 321, -10, 54, 196, -126, -409, -171, 102, -65, 779, 290, -225, -542, -42, 70, -83, 269, 166, 624, 855, -226, 210, 270, -28, -257, -116, -204, -8, -72, -291, 162, 22, 34, 179, 343, 756, 813, 1210, 939, 250, -70, -81, -19, 0, -12, 207, 575, 695, 296, 225, -206, 15, 52, 111, -52, 33, 